svm_type c_svc
kernel_type linear
nr_class 3
total_sv 3077
rho 0.277864 -0.695681 -0.819524
label 0 1 2
nr_sv 1373 1558 146
SV
0.1958675619632285 0.006570064834379065 137:1 4693:1 5065:1 5979:1 6301:1 6537:1 6839:1 7049:1 8883:1 9952:1 
0.1160033974796021 0.01192780111454792 14:1 57:1 367:1 1016:1 1724:1 3830:1 4983:1 6872:1 8513:1 8575:1 8637:1 8843:1 10059:1 10275:1 
0.7736487861551994 0.1141452531839818 140:1 3130:1 
0.207283011359485 0 1480:1 1596:1 2201:1 5224:1 6901:1 
0.1651073685198867 0 1005:1 1663:1 1777:1 3471:1 4066:1 5992:1 9342:1 10273:1 
0.2160070001223174 0 115:1 1710:1 2105:1 3820:1 4333:1 4591:1 6406:1 6693:1 7375:1 8991:1 
0.4011928418753116 0.007647036114183153 5281:1 7759:1 8606:1 10161:1 10273:1 
1 0 2469:1 4012:1 4740:1 7271:1 8057:1 8413:1 
0.202909152120822 0.03636681453322588 403:1 1381:1 3168:1 3400:1 6691:1 7773:1 8059:1 8724:1 9818:1 
0.3299284278237932 0 1538:1 2586:1 4386:1 4548:1 6406:1 6894:1 
0 0.0100097992110954 431:1 902:1 2876:1 5110:1 9760:1 
0.03183145802201844 0.01968422907744643 1257:1 3338:1 5386:1 6532:1 9062:1 9805:1 
1 0.3038894005576805 5224:1 
0.4152986710920731 0.03865498482481145 126:1 2241:1 7237:1 9510:1 
0.1374588022388057 0.007688988293157719 3617:1 4187:1 4257:1 7089:1 7097:1 7953:1 8894:1 9466:1 9674:1 
0.992655747642989 0.007005674443005045 2495:1 6337:1 6445:1 8374:1 
0.7223165965066902 0 7996:1 
0 0.020393363409882 130:1 1963:1 2072:1 2176:1 2353:1 2377:1 5558:1 6666:1 
0.01853603011520347 0 3863:1 6406:1 7451:1 8220:1 9541:1 
0.0570562361891623 0 284:1 1917:1 2021:1 2354:1 2481:1 3049:1 4265:1 5241:1 5522:1 6098:1 6406:1 6693:1 8885:1 
0 0.004916588247863402 76:1 91:1 1439:1 3768:1 4421:1 7187:1 7928:1 8151:1 9953:1 10220:1 
0 0.1006133595329165 2806:1 4596:1 5029:1 6662:1 6916:1 9254:1 9721:1 
0.5036762561926964 0.1123919098306489 2511:1 3211:1 3268:1 3339:1 
1 0 140:1 3403:1 6765:1 8924:1 
0.6388085089871274 0.1520484469204956 2781:1 8881:1 
0.07686867373924737 0 85:1 731:1 1836:1 2913:1 6388:1 9355:1 
0.1816500974215832 0 902:1 1023:1 1718:1 2718:1 3362:1 3974:1 4083:1 4872:1 5146:1 5837:1 6542:1 7017:1 7729:1 7833:1 8346:1 9355:1 9948:1 10172:1 
0.07787027066903209 0.009366738267700283 1204:1 1584:1 3719:1 3826:1 4135:1 4217:1 5443:1 5583:1 5828:1 6433:1 7128:1 
0.5056327496470363 0.06082869464355525 375:1 2298:1 4324:1 5966:1 7897:1 
1 0.06843621330719044 1281:1 5942:1 9876:1 
0.4180400619702215 0.02185618043079614 54:1 1234:1 1806:1 3936:1 5597:1 6086:1 7233:1 8209:1 
0.06286752455689411 0 716:1 1426:1 3013:1 3562:1 3863:1 4288:1 6406:1 7713:1 7813:1 8982:1 9162:1 
0.6439826453874235 0.039348131784965 2151:1 7497:1 10212:1 
0.04753023435175169 0.01502725195434086 958:1 1949:1 4690:1 4958:1 7565:1 8003:1 8835:1 8935:1 9374:1 9924:1 
0.2267560034227448 0.05331090123032908 2198:1 2652:1 3621:1 4082:1 4432:1 
0 0.01413112483685928 190:1 531:1 1108:1 1581:1 1760:1 4043:1 4367:1 4725:1 5296:1 6683:1 7317:1 7386:1 9941:1 9958:1 
0.08866283893169374 0.01824065582160005 2883:1 2961:1 3079:1 5792:1 6205:1 6578:1 8670:1 9495:1 
0 0.003836753296794668 587:1 905:1 1145:1 2868:1 4207:1 4574:1 4873:1 8413:1 9355:1 10229:1 
0.2346702768520221 0 1663:1 2173:1 2206:1 2917:1 4665:1 7360:1 9324:1 9701:1 
0.0516494778741908 0.0009050919725033718 25:1 663:1 805:1 1228:1 2853:1 2926:1 3426:1 3443:1 5504:1 6503:1 7144:1 7197:1 7289:1 7354:1 8262:1 8845:1 8865:1 10045:1 
0.2002335476417468 0 221:1 2019:1 3551:1 3916:1 4824:1 6223:1 6406:1 9492:1 
0.05049576237878244 0.01059701419062857 1971:1 2511:1 2862:1 3237:1 3833:1 4354:1 5617:1 6024:1 7030:1 7469:1 7651:1 8135:1 9308:1 10063:1 
0.05398615890254481 0.03385988606813715 131:1 4656:1 5268:1 6469:1 6823:1 
0.2585517482662075 0.04159791383508208 523:1 528:1 1429:1 2851:1 3013:1 3565:1 4078:1 4196:1 4956:1 5344:1 6793:1 7934:1 9485:1 
0.7364309604813829 0.05880611339872682 1151:1 4836:1 4916:1 6661:1 
1 0 1663:1 3814:1 6193:1 8759:1 
0 0.03582942890021378 587:1 1426:1 1566:1 1917:1 3008:1 3302:1 4288:1 6135:1 7879:1 9425:1 9592:1 10329:1 
0.01852949782289851 0 1737:1 2185:1 2218:1 3338:1 4327:1 4591:1 5369:1 7175:1 9425:1 10006:1 
0.07318247875613243 0 3338:1 4096:1 4944:1 5417:1 6952:1 8015:1 8186:1 8344:1 8413:1 8897:1 9286:1 10232:1 
0.03388631705347644 0.03873470839636384 1485:1 2603:1 2948:1 5321:1 5804:1 8589:1 9302:1 
0.5171789970204749 0 1294:1 5760:1 6588:1 8730:1 
0.01150060282261366 0.01657463026250103 1204:1 1607:1 3317:1 3470:1 3540:1 4569:1 7462:1 8251:1 
0.05347648967643966 0.02114185829264827 1580:1 2810:1 3275:1 3391:1 4737:1 5468:1 6399:1 8152:1 
0.1901457398741125 0 1663:1 1917:1 3574:1 6584:1 7302:1 9178:1 
0.6732138714936023 0 837:1 1663:1 4086:1 4244:1 6132:1 
0.2370298443788669 0.01104340363778517 19:1 54:1 499:1 1035:1 2150:1 6024:1 6178:1 6498:1 7833:1 
0.1620300187156946 0 1439:1 2015:1 3620:1 4141:1 4747:1 7453:1 8185:1 9492:1 9876:1 9906:1 
0.124772063835859 0.01382602224992266 1005:1 1780:1 3373:1 4276:1 5034:1 5630:1 6031:1 7700:1 7916:1 8619:1 9645:1 
0.158332649372984 0.02698686393744999 277:1 3174:1 5081:1 7289:1 8851:1 9800:1 
0.1806620493214778 0 1490:1 2201:1 2996:1 3083:1 4643:1 4884:1 5574:1 7065:1 7112:1 7953:1 8230:1 8937:1 8963:1 
0.1352260105958425 0.01000910981538593 3045:1 5728:1 6762:1 6846:1 7223:1 8516:1 8943:1 
0.2759994593053804 0.01320188165499091 565:1 1417:1 2221:1 3617:1 4121:1 6639:1 7281:1 9247:1 
0.2058231407454557 0.009176384390148045 189:1 513:1 989:1 2628:1 3423:1 4546:1 5727:1 6239:1 7036:1 9517:1 
0 0.01521123475920583 513:1 2074:1 7036:1 8492:1 
0.1311685144264169 0 160:1 751:1 1182:1 1663:1 3338:1 5429:1 7360:1 7455:1 8147:1 8722:1 
0.367131858544789 0.06252592279527459 8059:1 8397:1 9067:1 10110:1 
1 0 1663:1 5823:1 7658:1 10329:1 
0.06926740259008964 0 1034:1 3198:1 7338:1 9608:1 10213:1 10308:1 
0.3092951411158659 0 4568:1 6406:1 8413:1 9427:1 10193:1 
0.1787838156426608 0 725:1 1183:1 2209:1 2353:1 2558:1 3153:1 4157:1 6406:1 8127:1 9031:1 
0.1453408292048367 0 411:1 1559:1 2215:1 2570:1 4185:1 4211:1 4725:1 5468:1 6406:1 7114:1 9517:1 10072:1 
0.7108724094940073 0.303983502378841 7407:1 
0.458326207447037 0 421:1 954:1 1663:1 3357:1 4595:1 8003:1 10076:1 
0.1971467846652035 0 1410:1 1488:1 3139:1 4271:1 6343:1 6482:1 8074:1 10332:1 
0.1041186422464213 0 70:1 1386:1 1663:1 1820:1 2067:1 3248:1 6029:1 7140:1 7729:1 8732:1 9042:1 
1 0 1371:1 1663:1 3467:1 3778:1 6414:1 8522:1 9355:1 
0 0.02097777644054986 921:1 939:1 1159:1 1264:1 1563:1 2107:1 3193:1 4271:1 4524:1 6234:1 6561:1 8483:1 8814:1 8911:1 9721:1 
0.3730485415804156 0 5053:1 8980:1 9760:1 
0.1291482431412488 0.04446891449652545 910:1 1255:1 5564:1 6568:1 6763:1 10294:1 
0.2779484702065608 0 657:1 746:1 3976:1 6406:1 6659:1 6749:1 7061:1 8465:1 8732:1 9355:1 
0.1032706345246522 0 513:1 1663:1 3876:1 4263:1 6229:1 6738:1 7685:1 
0.1066799255092832 0.009862039080719526 1035:1 1686:1 2056:1 3873:1 4266:1 5332:1 5562:1 6080:1 6084:1 6847:1 6869:1 7471:1 8166:1 9123:1 9812:1 
0.08439954585603035 0.00397356595466568 4846:1 5249:1 5532:1 6483:1 6832:1 7278:1 7488:1 7495:1 7693:1 7878:1 9648:1 10037:1 
1 0 1663:1 4574:1 
0.2571544143650842 0 647:1 1793:1 1896:1 2911:1 3565:1 8200:1 8528:1 8766:1 
0.4014972527040778 0.01728752372371577 1153:1 3733:1 4659:1 4722:1 6383:1 7152:1 9075:1 
0.1585574836485578 0.04536581834004733 1353:1 3382:1 3703:1 5078:1 5903:1 7894:1 10304:1 
0.00741574833481508 0 2250:1 2448:1 2579:1 3224:1 3303:1 5088:1 5527:1 6406:1 7255:1 7695:1 7799:1 9573:1 10016:1 
0.3900975519739996 0 411:1 746:1 2718:1 3803:1 4739:1 4887:1 6814:1 8770:1 9148:1 9384:1 
0.1335077518988219 0.01466311220886992 384:1 491:1 763:1 2478:1 3574:1 3844:1 5275:1 7862:1 8100:1 
0.6406363926143778 0.0493181273897834 1294:1 5518:1 7712:1 7942:1 
0.2933727888803106 0 1747:1 2073:1 5673:1 6388:1 10276:1 10282:1 
0.313657913974568 0.02361632517447754 1168:1 2404:1 3058:1 5088:1 6081:1 6141:1 6493:1 7823:1 8202:1 8888:1 
0.1434012055195118 0.02992013614979313 223:1 1663:1 3030:1 4231:1 4569:1 5020:1 5774:1 6692:1 8869:1 9048:1 9101:1 
0.8096547522565941 0.004832266681097649 1417:1 8413:1 8621:1 
0.02178999896897245 0 181:1 664:1 1568:1 2495:1 3176:1 3907:1 4329:1 6105:1 6430:1 6660:1 6901:1 6971:1 7537:1 8367:1 9269:1 9271:1 
0.2749604312752785 0.01169316114934556 411:1 1580:1 2100:1 2789:1 3198:1 3389:1 3773:1 3887:1 6267:1 6875:1 7891:1 9591:1 
0.726019284234748 0.0541911944935959 731:1 3963:1 7032:1 9355:1 
0.2957877195108795 0 693:1 747:1 2644:1 3940:1 4836:1 6450:1 6904:1 8465:1 9910:1 
0.2882629395379888 0.01180128372161248 528:1 746:1 1613:1 2626:1 6215:1 6898:1 7953:1 8598:1 9355:1 
0.2546936218565565 0 98:1 1196:1 1947:1 4560:1 4569:1 5274:1 5752:1 7036:1 7405:1 7959:1 8241:1 8413:1 8791:1 9355:1 10053:1 
0.02525304140330312 0.01634682642516813 2239:1 4483:1 7036:1 7169:1 7878:1 
0.6671850807733074 0 131:1 3415:1 3506:1 4554:1 4822:1 5103:1 5191:1 5385:1 6947:1 7729:1 8363:1 9818:1 
0.3763636482906834 0.02396952570353058 121:1 1163:1 2495:1 9116:1 
0.1300687095828942 0 496:1 512:1 575:1 2141:1 2867:1 3275:1 3391:1 4242:1 5024:1 6170:1 6406:1 6573:1 8868:1 10085:1 
0.3292821448380257 0 1371:1 2990:1 3840:1 4256:1 5146:1 5621:1 6670:1 6901:1 7172:1 7949:1 
0.01893243371413665 0 1802:1 2409:1 3961:1 4893:1 4971:1 5604:1 6250:1 8069:1 8175:1 8375:1 8794:1 
0.07831232650900177 0 566:1 1371:1 1669:1 2477:1 2998:1 3569:1 4574:1 4776:1 5908:1 6901:1 6938:1 7523:1 7675:1 7880:1 8092:1 8836:1 9148:1 10130:1 
0.2543207529685835 0.02914898244142293 1163:1 1973:1 3716:1 4313:1 4623:1 5269:1 6751:1 7364:1 
0.5208778157916669 0 1035:1 1121:1 2073:1 2965:1 5804:1 10128:1 
0.1218682428926727 0.03356509628438343 977:1 1365:1 2097:1 3309:1 3977:1 5596:1 5793:1 
0.2651528830647037 0.009577428945420437 1766:1 2321:1 2475:1 3628:1 3876:1 6097:1 6872:1 7502:1 
0.2560384462805403 0.004515833464266732 349:1 4596:1 4694:1 5294:1 6595:1 9359:1 
0.1435667987370219 0.00446720529979344 1163:1 2168:1 3082:1 3447:1 3719:1 4266:1 4657:1 5478:1 6093:1 9937:1 10247:1 
0.168989825155369 0.01448765521323224 288:1 3638:1 3699:1 4404:1 5777:1 5840:1 8345:1 9479:1 10039:1 
0.3272883845373499 0 1663:1 2212:1 3337:1 3610:1 3629:1 4085:1 5584:1 5593:1 9615:1 
0.2576760656767953 0.02640328198973404 2946:1 3164:1 3721:1 5647:1 6024:1 6067:1 8169:1 9986:1 
1 0 647:1 1294:1 5958:1 8636:1 
0.2636985665163104 0 2897:1 5579:1 8003:1 8503:1 9355:1 
0.4411620753880851 0 1663:1 2310:1 6380:1 6646:1 7752:1 10055:1 
0.1615199594088294 0 940:1 1372:1 1585:1 2052:1 2073:1 2193:1 3469:1 5544:1 5633:1 8413:1 9198:1 
0.01996404524433462 0.01181448504282377 879:1 3612:1 4571:1 4665:1 5274:1 5429:1 10148:1 
0.1070754739230368 0.0143610315340248 178:1 473:1 3560:1 3956:1 4234:1 4644:1 5138:1 5284:1 5441:1 8272:1 8390:1 8679:1 
0.04890807517079785 0.02651264997764717 12:1 54:1 370:1 625:1 633:1 868:1 2851:1 3207:1 3512:1 4523:1 4542:1 4841:1 6315:1 6465:1 8035:1 9269:1 10138:1 
0.1700840507729895 0.08437194330600778 528:1 1481:1 3412:1 4086:1 4680:1 5610:1 6253:1 7153:1 
0.3497322884530436 0 2110:1 2274:1 3338:1 
0.2222997997361068 0 411:1 432:1 940:1 2073:1 2504:1 5604:1 9889:1 
0.1735352770471905 0 12:1 1621:1 2110:1 4560:1 5481:1 6406:1 6762:1 8575:1 8773:1 9804:1 
0.2663635583740662 0 625:1 945:1 2073:1 3932:1 5233:1 6399:1 6818:1 7267:1 8086:1 8407:1 8885:1 
0.09447421165909301 0.00603706928088211 1326:1 1693:1 1830:1 4216:1 4494:1 5324:1 5874:1 6437:1 7914:1 
0.2126207686688375 0.01234350485106435 2677:1 4258:1 4937:1 7442:1 7566:1 9056:1 10282:1 
0.1766122852091287 0 1564:1 2871:1 3470:1 6462:1 8498:1 9148:1 9370:1 
0.05442766302943761 0 1216:1 1939:1 2421:1 4276:1 6572:1 6670:1 7649:1 7720:1 7830:1 9355:1 9358:1 
0.9789844723136428 0.1231831768849264 764:1 5391:1 
0.08980213604014824 0.01564335980604266 1302:1 1853:1 3511:1 5432:1 6810:1 7213:1 8071:1 10198:1 10201:1 
0.100862522309393 0 131:1 1877:1 2486:1 3583:1 4124:1 4607:1 6460:1 8767:1 9282:1 
1 0.0782365044093318 4678:1 4982:1 6406:1 8088:1 9275:1 9511:1 9721:1 
0.4755425017490323 0 1663:1 1676:1 2933:1 3719:1 4112:1 5321:1 9759:1 
0.2925992087894925 0 647:1 1059:1 1675:1 1788:1 1933:1 4830:1 5376:1 6406:1 6660:1 8208:1 8399:1 8588:1 9204:1 
0.2257154597010637 0.01076479253317665 731:1 982:1 1500:1 2495:1 3552:1 3643:1 4042:1 6091:1 7957:1 8176:1 9418:1 
0.4342937444148579 0.0666423484468515 2736:1 3182:1 9340:1 
0.1764065864307346 0 753:1 1154:1 1342:1 1488:1 3646:1 4263:1 6248:1 9148:1 9329:1 9355:1 10148:1 
0 0.01158098884895597 126:1 431:1 1464:1 1506:1 3121:1 3207:1 4833:1 5604:1 5767:1 7040:1 7516:1 9280:1 9538:1 
1 0.01637780968465815 295:1 296:1 4688:1 8465:1 
0.170828366591142 0.02470108124099796 2105:1 4279:1 4304:1 4971:1 6248:1 6615:1 6990:1 7019:1 7077:1 7115:1 7842:1 8628:1 
0.1947817993263528 0.09526238029784236 1851:1 2073:1 2600:1 3207:1 6388:1 9162:1 9818:1 10217:1 
0.02856644927341006 0.03227854763927455 3930:1 4897:1 4934:1 5260:1 7816:1 7929:1 
0 0.1180621007157949 516:1 528:1 1410:1 4271:1 5823:1 8508:1 9355:1 9721:1 9976:1 
0.6564038043083698 0.1160031914477964 1035:1 2293:1 10349:1 
0.2070041551843615 0 1907:1 2066:1 2573:1 3783:1 8096:1 8935:1 10165:1 
0.3424793269689703 0.05073079215619487 943:1 1367:1 2149:1 9195:1 
0.4361409650661757 0.1037438150154318 1304:1 3207:1 3803:1 4545:1 8846:1 8902:1 9432:1 9495:1 
0.2994833373542167 0.1284742209354999 1326:1 8074:1 
0.8419307172066353 0 346:1 838:1 1342:1 2738:1 5311:1 5391:1 5461:1 5930:1 6406:1 9680:1 9880:1 
0.1933177467185529 0 265:1 2073:1 4093:1 4952:1 5290:1 
1 0 2495:1 6862:1 6901:1 
1 0 131:1 1663:1 
0.1409226129386097 0 101:1 625:1 1183:1 1982:1 3565:1 6406:1 6943:1 7157:1 7216:1 8937:1 9158:1 
0.2866571610746281 0 1594:1 2982:1 5693:1 8368:1 9355:1 
0.6514350020562546 0.01625868887633416 2756:1 4157:1 4836:1 
0.05571465020050955 0.001275719749331439 119:1 1035:1 1109:1 2765:1 4358:1 5356:1 6223:1 7220:1 8098:1 8830:1 
0.5410215945394941 0.06325369998934671 528:1 3769:1 4211:1 4271:1 5341:1 8820:1 
0.6719846272777589 0 3885:1 4122:1 5520:1 6406:1 6794:1 
0.5487190436115641 0 914:1 1989:1 3565:1 5591:1 6211:1 6901:1 6936:1 8125:1 9737:1 
0.2633939707821613 0.02852842280306073 3599:1 6044:1 6450:1 6886:1 7658:1 8615:1 8643:1 
0.05378014668886175 0 2495:1 2558:1 4292:1 6033:1 6164:1 6450:1 7575:1 8034:1 9718:1 
0.8326570257866626 0.04266007543210738 769:1 3803:1 
0.089935466437171 0 731:1 3831:1 6406:1 7055:1 9342:1 10095:1 
0.07107823350717674 0.04149371531506342 1035:1 2423:1 6146:1 7807:1 8579:1 
0.05305882238277568 0 591:1 803:1 1282:1 3803:1 3916:1 5188:1 5855:1 8108:1 10321:1 
0.2645779154909804 0.00546481324029286 1327:1 3284:1 3307:1 3529:1 3875:1 5866:1 6726:1 7223:1 8530:1 9042:1 9633:1 10182:1 10191:1 
0 0.001669347967009346 2074:1 5604:1 5841:1 6487:1 6701:1 7516:1 8991:1 9056:1 
0.2532003714493685 0 419:1 1663:1 3033:1 3970:1 4031:1 7759:1 9792:1 
0.3867412793144335 0 1035:1 4529:1 6160:1 6901:1 
0.09501124665509722 0 288:1 322:1 1431:1 2019:1 3259:1 5578:1 5840:1 7513:1 9107:1 9813:1 
0.1475423061100651 0 1:1 266:1 361:1 746:1 3281:1 4953:1 6726:1 6915:1 7527:1 8252:1 
0.4029128567691679 0.04627052558836038 12:1 4397:1 4595:1 5490:1 7185:1 7960:1 
0.3463565355065164 0.03907795239972629 2015:1 2095:1 5892:1 6886:1 7338:1 7780:1 
0.3294439019880316 0.08429194530822962 172:1 8102:1 
0.5426070863946231 0.05767594434456794 3205:1 4208:1 4503:1 9274:1 
0.6517246143974056 0 1410:1 6406:1 10273:1 
0.2418967552829226 0.01057485268904631 1678:1 2209:1 3863:1 4271:1 6789:1 
0.02144451525216931 0.005188586384854794 1072:1 1630:1 2414:1 2509:1 3900:1 4227:1 5989:1 6360:1 7368:1 10128:1 
0.3793471244228887 0.0490293893308855 4848:1 5689:1 8633:1 9253:1 9269:1 
0.1913967729348733 0.008287908782651985 44:1 424:1 432:1 459:1 625:1 1684:1 1926:1 1972:1 2546:1 3108:1 5716:1 6456:1 6849:1 7171:1 8602:1 8901:1 10034:1 
0.1514615782403578 0.02089976285005525 1060:1 1637:1 2755:1 3278:1 7007:1 7729:1 9998:1 10172:1 
0.159930833792671 0 505:1 728:1 764:1 2996:1 3086:1 3569:1 5359:1 6016:1 7318:1 
0.4083558776847195 0 162:1 364:1 2430:1 5010:1 6406:1 8674:1 
0.5048001899031072 0.01608796051540063 6439:1 6659:1 7141:1 7241:1 7602:1 
0.1413193387736386 0 2914:1 4265:1 4607:1 6161:1 7061:1 7724:1 8536:1 8767:1 
0.06655524646106145 0 65:1 1035:1 2312:1 2313:1 3576:1 3963:1 4126:1 4143:1 4253:1 4873:1 4882:1 9876:1 
0.3322338969089696 0 315:1 367:1 411:1 2458:1 7448:1 8767:1 
0.345395027153905 0.02995345175992915 357:1 1939:1 2138:1 
0.5606839250985639 0.01314757063861232 2921:1 3939:1 4394:1 4542:1 6146:1 8131:1 
1 0.2794185772446022 746:1 
1 0 1663:1 2019:1 3386:1 5296:1 7315:1 
0.1598691345444409 0 1371:1 2250:1 5359:1 5461:1 6406:1 7502:1 9219:1 10283:1 
0.0166027402959316 0 489:1 557:1 667:1 931:1 1553:1 2161:1 2996:1 3569:1 6130:1 6920:1 8036:1 8380:1 8591:1 8836:1 9172:1 9890:1 
0.06776385773594253 0 17:1 1363:1 2334:1 3265:1 3975:1 4157:1 7530:1 7938:1 8059:1 8301:1 8566:1 8718:1 8880:1 10255:1 
0.03835429057484101 0.03802701750218473 446:1 528:1 801:1 1766:1 4271:1 4667:1 4838:1 6175:1 6747:1 6815:1 7448:1 7480:1 
0.5646893629493576 0.04390496972208222 769:1 4093:1 6378:1 6780:1 
0.008588572205300845 0 130:1 163:1 1646:1 1823:1 3020:1 3756:1 3779:1 4906:1 4938:1 6074:1 7100:1 9040:1 9063:1 9438:1 10022:1 10041:1 
0.02116880687794907 0.0693410238548242 1029:1 7647:1 8441:1 
0.01346476422445454 0.03093337032304144 1016:1 1889:1 2310:1 2510:1 3767:1 4602:1 5386:1 6864:1 7241:1 7708:1 7969:1 8464:1 9451:1 10073:1 10340:1 
0.8939654967668244 0.01099131358371851 2604:1 6419:1 8864:1 9469:1 
0.2381846868680777 0 411:1 418:1 2733:1 3294:1 4004:1 4083:1 5254:1 9469:1 
0.01335353665526237 0 1220:1 2184:1 5352:1 6406:1 6722:1 8102:1 8230:1 8751:1 9355:1 
0.02447729076477773 0 731:1 902:1 2310:1 2463:1 5028:1 6683:1 6773:1 8102:1 8921:1 9355:1 
1 0.04464742683878582 5419:1 7708:1 8730:1 
0.1290410832435401 0.002017695908820698 3402:1 4269:1 5611:1 6400:1 8497:1 8699:1 8991:1 9575:1 
0.3939578412832516 0 1370:1 1663:1 2338:1 3168:1 3313:1 4840:1 5240:1 8150:1 8286:1 9451:1 9695:1 10146:1 
0.3313876662869704 0.003746039323661251 3072:1 4086:1 4806:1 5181:1 5330:1 6238:1 6393:1 7895:1 8312:1 
0 0.3996773277754212 587:1 2019:1 4758:1 
0 0.005213443327230239 1342:1 2285:1 5311:1 6388:1 
0.7117959858180238 0 1663:1 4215:1 4678:1 5203:1 5989:1 
0.1878978309976281 0 1531:1 1554:1 1814:1 2337:1 3161:1 3319:1 6552:1 6901:1 7049:1 8241:1 8911:1 
0.221944663349793 0.008371813663801971 126:1 1251:1 2803:1 3535:1 4154:1 7521:1 8484:1 9490:1 
0.2077628881936716 0 365:1 613:1 1663:1 1973:1 7644:1 8722:1 
0.4601616278346855 0.06518024267890492 2062:1 2072:1 3783:1 5522:1 
0.04582609881013651 0 427:1 1381:1 1779:1 1965:1 2033:1 2123:1 2124:1 3019:1 4720:1 6315:1 6701:1 10351:1 
0 0.03847347213228427 76:1 1594:1 1908:1 9301:1 
0.1578365913060908 0.1333479871079203 640:1 1216:1 3597:1 4710:1 6901:1 
0.2227120271379314 0.009440908147651883 1184:1 1519:1 2157:1 2255:1 2844:1 3037:1 3084:1 4061:1 4082:1 6551:1 7813:1 8539:1 
0.8423430212120039 0.04379160288706897 913:1 2996:1 3569:1 5218:1 
0.7928567409992507 0.02751032389728738 1163:1 2395:1 2882:1 3486:1 3567:1 9582:1 9608:1 
0.3839238035911517 0 76:1 185:1 1310:1 1989:1 5628:1 6097:1 6198:1 6205:1 8464:1 
0.03574248238064435 0.005093932959430994 1633:1 3917:1 4271:1 4757:1 4805:1 4939:1 5367:1 7024:1 9159:1 10230:1 
0.03749787168027457 0 740:1 1263:1 3181:1 4157:1 4440:1 6693:1 8737:1 9854:1 
0.1023338011398011 0.02243545533206838 1090:1 1922:1 3309:1 7815:1 9542:1 9690:1 
0.5109006116155157 0.04905830853740179 1029:1 4694:1 6895:1 
0.9647471613635251 0.05904160324335919 185:1 5219:1 6659:1 7224:1 9699:1 
0.03046914796044567 0 1916:1 2019:1 2105:1 2876:1 3536:1 7744:1 
0.2055015920609344 0 429:1 1458:1 1468:1 1884:1 3198:1 3940:1 3966:1 6406:1 7151:1 7433:1 8016:1 9039:1 9189:1 9283:1 
0.3717183693827318 0.0414232524137674 126:1 512:1 3247:1 3487:1 7253:1 7298:1 7315:1 7338:1 
0.6213751612847895 0.002284987964886425 1479:1 2110:1 2395:1 3278:1 5046:1 5072:1 7400:1 7772:1 8061:1 8606:1 9047:1 10006:1 
0.3468664535646892 0 76:1 2117:1 2463:1 3518:1 6406:1 6862:1 9361:1 
1 0.05210382119832635 2073:1 3641:1 
0.3706135259462919 0.172995138684058 2525:1 4750:1 8375:1 9823:1 
0.2146947942035368 0 1347:1 2073:1 4148:1 4547:1 6388:1 
0.6508379014782197 0.004960412626212333 2234:1 3086:1 4745:1 6607:1 7949:1 10282:1 
0.5518090075053341 0.06670377573564444 587:1 731:1 868:1 1294:1 1663:1 2734:1 3864:1 4085:1 4710:1 7277:1 9132:1 
0.1806338403738075 0.007562844998702977 2062:1 2366:1 2561:1 3486:1 3831:1 5500:1 10118:1 
0.649115070229075 0 86:1 2856:1 4694:1 6330:1 6406:1 7627:1 10059:1 
0.2790998708758871 0.07344034036288404 1074:1 2783:1 2993:1 3150:1 
0 0.02081854685201968 454:1 4966:1 6648:1 6790:1 8885:1 9069:1 
0.1492429133335586 0 658:1 1923:1 2019:1 2385:1 3153:1 3289:1 3355:1 3540:1 7274:1 7647:1 7759:1 8230:1 
0.05009422468246797 0 1163:1 1417:1 2408:1 3997:1 6153:1 6406:1 6934:1 7780:1 9704:1 9985:1 
0.3346908763184837 0.0461124498873445 1646:1 2073:1 4859:1 5386:1 6332:1 6333:1 6646:1 8186:1 8367:1 8498:1 9232:1 
0.432885388989198 0.02272322423129198 5365:1 5629:1 6149:1 6572:1 6704:1 
0.1176469271546332 0.009948097330261493 1557:1 1567:1 2586:1 3104:1 4922:1 6062:1 6597:1 6631:1 8063:1 
0.1371333412779378 0 1410:1 3723:1 4269:1 6307:1 6406:1 10329:1 
1 0 3260:1 3338:1 3392:1 
0.2411607301939778 0.02649728997287939 81:1 749:1 1035:1 1615:1 2126:1 2538:1 5825:1 5871:1 9458:1 9866:1 
0.741747762343443 0.1503414254429328 7868:1 8413:1 
0.4651257920935752 0 55:1 746:1 5391:1 5760:1 6337:1 9140:1 10017:1 
0.01946678262979121 0.06790572714479883 721:1 4643:1 7610:1 
0.006939636712110313 0.006737358419264819 845:1 2283:1 2513:1 4086:1 4181:1 6691:1 8244:1 10120:1 
0.3246965476442011 0.03788533209747972 4681:1 5449:1 6452:1 7049:1 7580:1 
0.05591348213637323 0 48:1 818:1 1663:1 3163:1 4881:1 5385:1 5748:1 6174:1 8411:1 9905:1 10018:1 
0.09305885944041589 0.03099141837196097 877:1 1663:1 1766:1 1861:1 2911:1 3821:1 4447:1 4574:1 5820:1 5853:1 6081:1 6130:1 6857:1 7514:1 7743:1 9899:1 
0.6686639918322803 0.009971576389178541 147:1 253:1 528:1 989:1 1204:1 2140:1 3719:1 4665:1 8241:1 
0.2436400859415525 0.01802691387471214 67:1 1635:1 2077:1 2738:1 4111:1 5149:1 6592:1 7646:1 7658:1 8830:1 9636:1 10282:1 
0.5481697823676388 0.01045523677225998 261:1 415:1 1401:1 1721:1 2346:1 4765:1 6532:1 7300:1 8006:1 8860:1 9503:1 
0.2055144197299324 0 284:1 411:1 1199:1 2495:1 5186:1 7211:1 7312:1 
0.4721892019413997 0.2348968763238275 1663:1 1800:1 2524:1 5774:1 6410:1 7040:1 
0 0.02436053801180088 428:1 491:1 528:1 1024:1 1163:1 1326:1 1555:1 1566:1 1613:1 3198:1 4729:1 8127:1 
0.003284381189319595 0.09033649993153832 543:1 544:1 1431:1 3487:1 5001:1 5274:1 8017:1 
0 0.01365500463113427 591:1 731:1 803:1 4140:1 4157:1 5040:1 7504:1 8918:1 10326:1 
0.1253432328468503 0.01148865042768708 173:1 1016:1 2612:1 4318:1 4389:1 5274:1 8467:1 10131:1 
0.6886711235212899 0.07493619286038342 1256:1 5356:1 8350:1 10153:1 
0.5137990644090408 0 773:1 1233:1 2295:1 2996:1 3247:1 5604:1 5989:1 6750:1 7228:1 10209:1 
0.5620862933427805 0.01591461943935863 126:1 4026:1 4112:1 4883:1 5386:1 6214:1 6406:1 8595:1 
0.9540611147646176 0 1663:1 3152:1 5968:1 8222:1 9818:1 
0.8401497027031999 0.0980234124870208 2876:1 4555:1 7574:1 
0.09571151803656935 0.05056034861001529 2074:1 3627:1 6703:1 8279:1 8320:1 
0.5395624100466716 0.03916914761692684 4796:1 5773:1 6400:1 6450:1 8589:1 
0.6196743919890889 0.06163682479121138 1293:1 2321:1 9111:1 9349:1 
0 0.0373466824079095 101:1 2923:1 3923:1 4011:1 4157:1 4189:1 8222:1 9031:1 9110:1 10213:1 
0.3937159325568302 0 528:1 623:1 2015:1 2890:1 3940:1 7682:1 8209:1 8767:1 9102:1 9355:1 9738:1 
0.2433921112529026 0 542:1 2368:1 3145:1 4629:1 5683:1 6406:1 7118:1 
0.5940231328051279 0 1663:1 2487:1 3633:1 6024:1 7880:1 8170:1 9716:1 
0.1433457241287497 0 295:1 3734:1 5327:1 5365:1 5998:1 7690:1 7953:1 9360:1 
0.4777567278629388 0 3:1 131:1 711:1 3803:1 
0.5554099789219946 0.08604437476644769 3930:1 4596:1 
0.05809731774286812 0 1565:1 2073:1 3244:1 4000:1 5695:1 6359:1 7070:1 8429:1 9620:1 9637:1 
0.1021512666254294 0 62:1 265:1 647:1 2972:1 4748:1 4863:1 5020:1 5711:1 6689:1 7623:1 7841:1 9161:1 9269:1 9548:1 
0.06680162660944602 0.02347615704077776 551:1 1519:1 2733:1 3121:1 4816:1 6101:1 6157:1 6328:1 9874:1 
0.9762031071003796 0.01332052380308676 1711:1 2019:1 2740:1 7233:1 10005:1 
0 0.003008253967011792 625:1 4503:1 4507:1 5084:1 5680:1 5760:1 7942:1 8306:1 9189:1 
0.3869962876799936 0.004780769431459358 435:1 1920:1 2402:1 3214:1 4221:1 4545:1 4904:1 5025:1 8218:1 9029:1 9215:1 9342:1 9826:1 
0 0.004957616544165642 1677:1 2707:1 3039:1 3277:1 4800:1 5075:1 5274:1 7619:1 
0 0.02065475014631392 1540:1 4269:1 5928:1 8102:1 
0.7880297528807269 0.0002700707861933993 746:1 8927:1 
0.4808020376292155 0.0878149494046981 3432:1 4250:1 4818:1 
0.2975483118633103 0 1182:1 1663:1 2388:1 6985:1 9269:1 9530:1 
0.304496220012083 0.04749792426590853 341:1 2148:1 3468:1 6313:1 9813:1 
0.6261387155205509 0 2073:1 6612:1 6649:1 
0.07637742997417703 0 512:1 528:1 647:1 812:1 1391:1 2019:1 2469:1 3971:1 4178:1 5033:1 6406:1 8254:1 9787:1 
0.7375028851637879 0.01592262378398327 2643:1 2996:1 7448:1 10341:1 
0.0568622766061923 0.01729978657545616 1585:1 3828:1 4157:1 7285:1 
0.4877861297670906 0.06151130763453942 731:1 4221:1 4560:1 4590:1 6135:1 8396:1 
0.2101447833959354 0 76:1 1163:1 3153:1 3221:1 4717:1 5814:1 5919:1 6112:1 6327:1 6406:1 6418:1 6546:1 6739:1 8279:1 8814:1 
0.5708012820989064 0.0953022989410815 1923:1 3785:1 8220:1 
1 0.07274227377680965 1528:1 5080:1 5212:1 
1 0 1663:1 3445:1 4095:1 
0.1540220756218179 0 1371:1 2381:1 2524:1 2748:1 3392:1 3803:1 5246:1 6406:1 6532:1 8132:1 8224:1 10273:1 10308:1 
0.006039950743950797 0.003601904052051823 2141:1 3926:1 4590:1 5356:1 6427:1 7519:1 7740:1 9455:1 
0.1759681962829982 0 401:1 647:1 691:1 1437:1 1663:1 1939:1 2106:1 4607:1 4813:1 6406:1 7066:1 7450:1 8452:1 
0 0.1408119204712185 4486:1 4857:1 
0.07526217482493665 0 5059:1 6002:1 6315:1 6392:1 7575:1 
0.06873122320822189 0 159:1 716:1 1324:1 3210:1 4095:1 4238:1 5224:1 5744:1 5825:1 7288:1 7813:1 9314:1 
1 0.08124355836137245 844:1 5204:1 6838:1 
1 0.1460625284909876 1223:1 2145:1 4263:1 
0 0.01756455302917496 3016:1 8003:1 8397:1 8411:1 8441:1 9378:1 9493:1 9647:1 10075:1 
0.144203579573971 0 1663:1 2157:1 4157:1 6653:1 6733:1 7441:1 7610:1 8465:1 8579:1 9331:1 9919:1 10271:1 
1 0.3176132267930807 5341:1 
0.3332039514721248 0 1984:1 3153:1 6024:1 6850:1 7862:1 9622:1 9819:1 10152:1 
0 0.01134083460737834 623:1 937:1 2214:1 3610:1 3651:1 4602:1 5386:1 7724:1 8679:1 8862:1 8911:1 
0.07344081516840889 0.07073474805024407 5836:1 6889:1 7108:1 8995:1 
0.1554418639986689 0.067728349044305 131:1 277:1 528:1 987:1 5823:1 8127:1 10328:1 
0.859375947835629 0.0001790291876504271 179:1 5224:1 6002:1 
0.1145055223465858 0.01026485260713527 1243:1 1641:1 1940:1 2167:1 3008:1 3142:1 3926:1 4484:1 9900:1 10037:1 
0.4777958155189279 0 412:1 1193:1 5574:1 6406:1 6857:1 9419:1 
0.2376656091092005 0 84:1 2019:1 6820:1 7638:1 7647:1 8438:1 8717:1 9647:1 
1 0 3876:1 6024:1 6406:1 7423:1 8986:1 
0.1655063747283338 0 1706:1 1861:1 2395:1 3289:1 5497:1 6406:1 8516:1 10246:1 
0.03064964426056952 0 1417:1 2019:1 4833:1 5510:1 6406:1 6551:1 8102:1 8714:1 
0.05650432354632971 0 685:1 1137:1 1507:1 2677:1 2886:1 3641:1 3853:1 5629:1 6406:1 8261:1 9071:1 10255:1 
0.4647982979286183 0 647:1 2193:1 2767:1 4607:1 5146:1 5158:1 6689:1 7397:1 8131:1 8197:1 
0.5289960170874934 0.07890960283685226 803:1 3302:1 5975:1 10102:1 
0.1269946986528389 0 4830:1 6057:1 6243:1 6406:1 9125:1 9180:1 10032:1 
0.1600706381060467 0.05898802882568112 5629:1 5907:1 7536:1 
0.5178360834999353 0 178:1 473:1 1663:1 4644:1 5477:1 9757:1 
0.1826295239592841 0.01708792333971081 93:1 2620:1 3940:1 4813:1 5407:1 6857:1 7794:1 
0.3481511917002056 0 2105:1 3078:1 4269:1 5461:1 6553:1 7403:1 8411:1 9971:1 
0.2149057410226857 0.1400869025430911 647:1 1417:1 2396:1 2815:1 3106:1 5973:1 8391:1 8400:1 8903:1 
0.1339361406715078 0 647:1 1663:1 2926:1 3939:1 4181:1 4879:1 6833:1 7058:1 7629:1 8116:1 8131:1 
0.1390033588993032 0.06116933014240204 295:1 647:1 1939:1 3061:1 3362:1 4388:1 5745:1 6762:1 6818:1 7610:1 7753:1 7995:1 9896:1 
0.6144284652608758 0.1558762981053087 184:1 4710:1 6315:1 6373:1 9529:1 
0.07608205025705221 0 2083:1 2621:1 4083:1 4569:1 4997:1 7266:1 
0 0.001076246396196769 895:1 1503:1 1973:1 2646:1 3685:1 3721:1 4574:1 6803:1 6832:1 9044:1 
0.04506945973709402 0.005647246690624947 595:1 1917:1 1926:1 3856:1 3886:1 6345:1 7128:1 
0.02909433338826117 0 134:1 411:1 2149:1 3169:1 3507:1 4242:1 4266:1 5423:1 5551:1 6005:1 8606:1 8647:1 9813:1 10313:1 
1 0 178:1 656:1 753:1 1663:1 
0.4544865371262718 0.009416042217667278 2586:1 2769:1 3868:1 4261:1 4271:1 5333:1 9707:1 10299:1 
0.2187061895960469 0 2475:1 3181:1 3424:1 3642:1 4211:1 8241:1 8464:1 9643:1 
0 0.01402189553054476 9:1 19:1 2520:1 3529:1 4256:1 9513:1 
0.1936669131059234 0 30:1 989:1 993:1 1614:1 5272:1 6406:1 7320:1 9355:1 10273:1 
0.1043895681165251 0 1640:1 3606:1 3698:1 3958:1 4364:1 4459:1 5377:1 5378:1 6449:1 6901:1 7525:1 7729:1 8600:1 8885:1 9714:1 9887:1 
0.01047504716273436 0 277:1 387:1 711:1 3017:1 3166:1 3923:1 5275:1 5350:1 5536:1 6152:1 6425:1 6818:1 7204:1 7513:1 7635:1 7981:1 8594:1 
0.350702190619587 0.01356161619153426 685:1 3442:1 4244:1 4399:1 5946:1 6854:1 7368:1 
0.3760275695754263 0 2367:1 3836:1 3893:1 5204:1 5816:1 7274:1 8102:1 
0.2030127372833691 0 4276:1 4665:1 5032:1 5203:1 6406:1 6860:1 9511:1 
0.2947792757044244 0.04982150859814544 2753:1 5644:1 7381:1 9530:1 
0.112696242116767 0 277:1 1366:1 3071:1 3282:1 4806:1 4971:1 5081:1 5430:1 6406:1 7063:1 9035:1 
0.05580217420490237 0 816:1 1676:1 1893:1 3390:1 4747:1 5376:1 6198:1 8465:1 8555:1 8911:1 
0.5823425336297188 0 130:1 746:1 2718:1 3467:1 3487:1 4084:1 5929:1 6330:1 
0.009754389947171444 0 49:1 137:1 527:1 928:1 2018:1 2421:1 4234:1 4659:1 5701:1 5719:1 8396:1 9674:1 10282:1 
0.3118161803906608 0 161:1 411:1 1006:1 1052:1 2423:1 4299:1 4559:1 5169:1 5597:1 7218:1 7365:1 7918:1 
0.2074164740258548 0.02263741160069693 2239:1 2423:1 3471:1 8069:1 
0.5289230072628488 0 647:1 3482:1 5083:1 5142:1 5224:1 6475:1 8767:1 9355:1 
0.09017934137000766 0 746:1 2202:1 3044:1 3057:1 3420:1 4181:1 6144:1 6406:1 6805:1 6832:1 8568:1 8657:1 9744:1 
0 0.01831916144886753 838:1 1549:1 1600:1 2643:1 2930:1 4073:1 5016:1 6214:1 8914:1 9866:1 
0.5244809619511905 0 1499:1 2980:1 3270:1 3723:1 4043:1 4256:1 4607:1 5816:1 8429:1 9355:1 
0.153861192262904 0.02077850347511984 551:1 734:1 5117:1 5196:1 5906:1 6010:1 8465:1 8817:1 
0.128974316847405 0 1917:1 2019:1 2586:1 5183:1 6083:1 6747:1 
0.2033909913984432 0 131:1 1562:1 3332:1 3718:1 4162:1 5274:1 5529:1 6215:1 6670:1 8086:1 8861:1 
0.2364165288009993 0.09880837948966882 8836:1 8969:1 9655:1 
0.2034157466420488 0 595:1 828:1 1663:1 1676:1 2495:1 3242:1 4086:1 7017:1 7676:1 7869:1 
0.2460178883473034 0 710:1 1811:1 2019:1 2061:1 2532:1 3453:1 3942:1 5080:1 5212:1 7127:1 8565:1 9342:1 9355:1 
0.5685467862876834 0 415:1 2073:1 7531:1 8407:1 10093:1 
0.296703621189303 0 1663:1 3999:1 4007:1 4242:1 7004:1 7336:1 9255:1 
0.51890702405218 0 1663:1 1854:1 4204:1 4973:1 5002:1 5825:1 5989:1 6130:1 7297:1 7833:1 9351:1 
0.07443085608855359 0 341:1 1244:1 1695:1 1737:1 1755:1 3181:1 3203:1 3337:1 4453:1 5086:1 6105:1 6315:1 6406:1 6956:1 8656:1 
0.4179848551380009 0 178:1 529:1 1302:1 1417:1 2019:1 2662:1 3121:1 3803:1 5437:1 6023:1 
0.3093854827536448 0 1006:1 1389:1 1582:1 1663:1 2472:1 5081:1 6570:1 6660:1 8813:1 9469:1 10282:1 
0.3428441006388688 0.02247368091447088 1209:1 2699:1 3719:1 5866:1 7173:1 8464:1 
0.1938073704956862 0 2074:1 3202:1 3930:1 6157:1 6375:1 7036:1 10071:1 
0.6095472232946745 0 2395:1 3569:1 3744:1 5357:1 6022:1 6406:1 10331:1 
0 0.01948195759761686 1676:1 2677:1 3078:1 3482:1 4857:1 4890:1 7004:1 
0.3611323235734975 0 2664:1 3127:1 3338:1 3780:1 7530:1 8241:1 8911:1 9342:1 10312:1 
0.2211747735671131 0 345:1 1663:1 3309:1 5775:1 6406:1 6691:1 6846:1 7139:1 7644:1 7649:1 7695:1 8606:1 8911:1 9401:1 9710:1 
0.1411999548928277 0.00570711009477879 296:1 411:1 2072:1 2433:1 3705:1 6081:1 8971:1 9371:1 9963:1 
0.1627589222687321 0.04725359616977169 357:1 1940:1 5662:1 5816:1 7141:1 
1 0 4467:1 6901:1 8367:1 
0.2208663232613058 0.02227773163179764 44:1 1302:1 3853:1 5671:1 5894:1 5989:1 7007:1 8421:1 8483:1 
0.0991414848530104 0 1663:1 2015:1 2019:1 2073:1 3045:1 3900:1 8429:1 
0.4336878491823357 0.08448432137966432 1367:1 2206:1 
0.3792166554850711 0.001635563456949272 1050:1 1120:1 1593:1 2691:1 6024:1 7712:1 9451:1 10283:1 
0.07139889670906595 0.0001706681164261043 791:1 1441:1 1638:1 1983:1 3121:1 4859:1 5671:1 7159:1 7644:1 7900:1 8208:1 
0.1993375831421733 0 32:1 411:1 2657:1 3373:1 3712:1 4271:1 4946:1 5080:1 5805:1 5833:1 9688:1 
0.1800436356098776 0 119:1 647:1 736:1 1720:1 2105:1 2524:1 4545:1 4855:1 6089:1 6406:1 8003:1 
0.3260571290574917 0.02450470873322334 249:1 4083:1 6543:1 7929:1 8382:1 
0.2973563280989258 0.01140813163771084 440:1 647:1 795:1 3379:1 4033:1 6223:1 6631:1 8937:1 9252:1 
0.2676589295823413 0 1458:1 1663:1 2177:1 2592:1 2935:1 3123:1 4765:1 7245:1 7572:1 8016:1 8253:1 9444:1 
0.2421820583003236 0.02917783055892987 2302:1 3833:1 4939:1 5548:1 7141:1 7315:1 7446:1 8413:1 9355:1 
0 0.06216380711827012 140:1 3950:1 5826:1 
0.5265366945109112 0 1596:1 4345:1 9217:1 9510:1 9781:1 9818:1 
0.4130890138755071 0.01549075104191982 1224:1 5315:1 6152:1 7437:1 10051:1 
0.2586207782523848 0 1371:1 1482:1 2705:1 4927:1 5341:1 5447:1 
1 0 131:1 1663:1 5207:1 
0.3286361221526429 0.01250726732541704 1122:1 2234:1 2528:1 3467:1 5249:1 5760:1 5821:1 7506:1 7707:1 9822:1 9988:1 
1 0.3039985677962235 3025:1 
0.2310772448484874 0.1612692443612561 1553:1 1800:1 2461:1 5886:1 5923:1 7531:1 
1 0.3039929180976978 5829:1 
0.1700758133968564 0 664:1 1646:1 1828:1 3569:1 4291:1 5281:1 7007:1 9355:1 
0.2381205211044667 0 746:1 3181:1 6828:1 9038:1 
0.02193115820996004 0.0001164155721026261 420:1 503:1 1695:1 1980:1 2074:1 2385:1 2867:1 4538:1 5114:1 5353:1 5468:1 8964:1 10049:1 
0.4263366830719463 0 1416:1 4011:1 4514:1 5281:1 5629:1 6289:1 
1 0 1663:1 6790:1 
1 0.05799441933003294 549:1 2662:1 5945:1 9358:1 
0 0.07784374722484747 288:1 2206:1 2656:1 4254:1 5386:1 6502:1 8415:1 10273:1 
0.3710611153049559 0.03723484923633146 976:1 1760:1 5311:1 6210:1 
0.3694077022410539 0.05072980964203838 949:1 3392:1 5070:1 5251:1 5872:1 6632:1 
0.02289175036805992 0 992:1 1695:1 2073:1 2846:1 3539:1 4899:1 6024:1 9140:1 9732:1 
0.4994417251461334 0.01444747916740574 1417:1 3121:1 5442:1 6572:1 7694:1 8211:1 
0.5927633761034946 0.0288372512304805 3492:1 6087:1 6690:1 6722:1 7531:1 8274:1 
0.9045952615814948 0.06518267371368282 1638:1 2833:1 2922:1 5719:1 
0 0.008060198404535934 838:1 1035:1 1141:1 1453:1 2410:1 6678:1 8483:1 9998:1 
0.7531502383475929 0 2367:1 4256:1 4854:1 5770:1 8241:1 8722:1 9660:1 
0.4301220212403414 0.035275593691734 359:1 2593:1 7713:1 7972:1 8465:1 8905:1 
0.2307265306425941 0 3471:1 3626:1 4550:1 6234:1 6315:1 6971:1 
0.00825316137367629 0 76:1 91:1 126:1 2751:1 3153:1 4421:1 5407:1 6330:1 6937:1 7850:1 9613:1 10216:1 
0.0487601131190634 0 1417:1 2722:1 3011:1 3121:1 3751:1 5647:1 6930:1 8408:1 8429:1 9475:1 
0.1071289118559534 0.008355227461362073 287:1 323:1 2215:1 3645:1 3886:1 4898:1 5825:1 5960:1 6854:1 7261:1 7913:1 8549:1 8596:1 8679:1 8709:1 9750:1 9994:1 
0.3245254650293347 0 1663:1 3181:1 4574:1 7271:1 8632:1 9210:1 
1 0 3651:1 5461:1 6406:1 
0.2345137056663631 0 411:1 731:1 2141:1 4677:1 6406:1 6695:1 8548:1 
0.7315468965472097 0.152054546104972 672:1 3238:1 
0.1174611066497209 0 1796:1 2641:1 2677:1 3063:1 3163:1 4234:1 5391:1 6097:1 6406:1 9381:1 
0.4910945610015151 0 83:1 444:1 3954:1 4697:1 4857:1 5233:1 5419:1 6024:1 8591:1 9854:1 
0.08078988180330536 0 2073:1 6388:1 9178:1 
0.805752105894986 0.08311346675175359 2525:1 4665:1 
0.3721248100217915 0.02010657018730334 1922:1 3042:1 3840:1 3948:1 4358:1 4947:1 5754:1 6223:1 9089:1 
0.2074971166756954 0.03781319949310486 166:1 528:1 4916:1 5081:1 6780:1 6857:1 6971:1 7039:1 7204:1 7223:1 7553:1 8761:1 
0.1820699454179758 0.001195144124089212 2073:1 4750:1 5043:1 5606:1 6388:1 6659:1 8241:1 9113:1 
0.3267695565037728 0.07944641282402937 731:1 1514:1 1582:1 1638:1 7747:1 
0.4642216101947132 0 3813:1 4729:1 4758:1 8170:1 8205:1 8498:1 9355:1 
0 0.01941451394449972 952:1 2227:1 2705:1 4157:1 5120:1 5192:1 8143:1 10194:1 10255:1 
0.1159312669090904 0.008697104927606239 731:1 3668:1 4665:1 5018:1 6985:1 7871:1 9355:1 
0.1113366235656432 0.01467757759298116 1141:1 1362:1 2073:1 5079:1 
0.4306630576796826 0.09476969839591944 731:1 1756:1 3145:1 4379:1 10028:1 
0.3266160619524768 0.0589042706298085 1201:1 2474:1 4264:1 5208:1 10059:1 
0 0.007622165589921362 291:1 763:1 3471:1 6481:1 8089:1 8836:1 
0.2168111148921256 0.01347750176169509 466:1 1602:1 4351:1 5526:1 6751:1 7036:1 7528:1 9271:1 9465:1 
0.4955997821323451 0.06398013400292661 261:1 1091:1 4559:1 10152:1 
1 0 2495:1 5013:1 5468:1 
0.1444864709657598 0 2073:1 2166:1 8786:1 10060:1 
0.1793439569863047 0 295:1 1663:1 2825:1 5327:1 6406:1 6607:1 7506:1 7686:1 8380:1 8507:1 
0.08263104865590643 0.04888735673697097 688:1 4208:1 6415:1 7242:1 8889:1 
1 0.08566105736006677 4238:1 6854:1 7381:1 
0.2334329130617747 0 2578:1 2875:1 3011:1 5320:1 8860:1 9295:1 9355:1 9908:1 
0.04757975316304018 0 2001:1 3526:1 3803:1 5629:1 6120:1 6901:1 7684:1 8885:1 9908:1 
0 0.03684260126147235 1390:1 2239:1 2463:1 3930:1 4163:1 4475:1 5239:1 5638:1 6128:1 6838:1 6892:1 7315:1 8669:1 
0.1602087096235433 0.02479659995650909 916:1 2173:1 2692:1 3918:1 5867:1 6087:1 8522:1 9161:1 9301:1 
0.3743210806946221 0.0221974070218954 2258:1 4044:1 5162:1 5263:1 5575:1 5991:1 6049:1 7066:1 7072:1 9606:1 10143:1 
0.1555142572182657 0.01352282300490332 3181:1 4196:1 4259:1 5604:1 7751:1 8877:1 10146:1 
0.07246323981028605 0.06023386436673549 536:1 2056:1 5386:1 5673:1 6406:1 9887:1 
0.3791596974065762 0.03808835961789388 569:1 1178:1 1618:1 3640:1 4232:1 8809:1 8895:1 9911:1 
0.4747586349726434 0.04853824282833744 4004:1 4093:1 4181:1 7103:1 9008:1 9908:1 10064:1 
0.7814201418087633 0.1519789161676491 3712:1 7180:1 
0.2036797016455366 0 1417:1 1940:1 2321:1 6186:1 7244:1 7689:1 8035:1 8654:1 8860:1 
0.3223188890285932 0.04670715134528932 3323:1 6097:1 6772:1 7619:1 8257:1 
0.09467073388090189 0 295:1 1493:1 1911:1 2416:1 3222:1 4408:1 4731:1 5192:1 6253:1 6388:1 7550:1 8935:1 9709:1 
0.4229215588962069 0.07551448890964375 2232:1 5765:1 7759:1 
0.3519045369184361 0.00576106799620549 2709:1 3728:1 5015:1 5866:1 5979:1 6895:1 7098:1 7336:1 9796:1 
0 0.02338760947846456 747:1 3048:1 6806:1 6838:1 7017:1 7742:1 
0.09972064958788703 0.01960935274272688 2472:1 3572:1 4317:1 4451:1 5598:1 7679:1 9042:1 10014:1 
0.1616198160647416 0.1540615362983926 528:1 1227:1 1273:1 2488:1 2747:1 4978:1 5385:1 7594:1 7718:1 8935:1 
0.5176818864182473 0.08641962019312312 2586:1 3565:1 4265:1 4523:1 9560:1 
0.7158288428318267 0 1281:1 4644:1 6405:1 9178:1 9511:1 
0.02230834148099609 0.03728545634097701 1123:1 1745:1 2368:1 3706:1 6419:1 9604:1 
0.3781124218448628 0 1663:1 2110:1 2161:1 2643:1 2996:1 5106:1 
0.1883784160534966 0 2019:1 2282:1 2837:1 3251:1 4086:1 4666:1 6406:1 6926:1 8464:1 10282:1 
0.6731006551826571 0.016464165596152 1590:1 5136:1 5369:1 6857:1 
0.08263925535531468 0.01389160240873372 2231:1 2877:1 4011:1 4271:1 5256:1 6235:1 8192:1 8852:1 8909:1 10316:1 
0.1300473434429592 0.01814950691977914 955:1 1694:1 2150:1 2313:1 4809:1 5275:1 5993:1 6345:1 7204:1 9134:1 9709:1 
0.1957728274736557 0 91:1 164:1 194:1 3086:1 3567:1 5373:1 5385:1 5419:1 
0.2004125476157236 0 1347:1 1596:1 2227:1 3950:1 4276:1 5407:1 6332:1 6406:1 8767:1 9564:1 
0.3852350236620444 0.02257719851230225 35:1 5037:1 5178:1 5898:1 8894:1 9163:1 10329:1 
0.2650583342706316 0 788:1 2580:1 2588:1 3506:1 5643:1 6821:1 6856:1 7681:1 7778:1 8241:1 9062:1 9910:1 
0.2218907573324484 0.02440808514327545 1559:1 2395:1 2716:1 2749:1 3486:1 5229:1 
0.4103358863737792 0 1450:1 4002:1 4873:1 4907:1 6215:1 6818:1 6864:1 7019:1 7282:1 7748:1 9566:1 
0.4998735131619863 0 1828:1 2019:1 3020:1 7961:1 
0 0.01054703699243315 277:1 303:1 906:1 2225:1 5598:1 6788:1 9862:1 
0.4444339396761379 0 816:1 2591:1 3712:1 4983:1 6895:1 8911:1 
0.3008067324368964 0.02011933051441322 940:1 1725:1 1829:1 2105:1 3752:1 4265:1 4712:1 4830:1 6615:1 8434:1 10339:1 
0.5939101869293866 0 849:1 1922:1 2180:1 4665:1 5224:1 5930:1 6406:1 
0.6470345484435642 0 1141:1 1489:1 2073:1 9178:1 
0.2514234372890991 0 144:1 741:1 1035:1 2423:1 4545:1 5629:1 6145:1 8247:1 9527:1 10121:1 
0.05626696416924437 0 272:1 2662:1 5180:1 5660:1 6013:1 6740:1 6874:1 7953:1 8787:1 9676:1 
0.6729490060739188 0 12:1 2019:1 3974:1 4688:1 9713:1 
0.2563846358301013 0 44:1 480:1 762:1 2019:1 2777:1 5215:1 6482:1 8349:1 9437:1 
0.1199699953611613 0 1646:1 2914:1 3189:1 3931:1 4053:1 4265:1 4677:1 5030:1 6635:1 6981:1 8988:1 9469:1 
0.5996962209932436 0.03156751247991781 562:1 5280:1 8436:1 8911:1 
1 0.153417833876457 5582:1 5756:1 
0.8601320427831112 0.01533226535569594 235:1 316:1 2423:1 3211:1 9226:1 9826:1 
1 0 731:1 746:1 1596:1 4017:1 
0.0594312409641225 0 1194:1 2073:1 5527:1 5951:1 8206:1 9487:1 9874:1 
0.1802162830702826 0 5215:1 5629:1 6406:1 6661:1 7244:1 8323:1 10053:1 
0.9544704147725978 0.07116040839959353 360:1 1632:1 5651:1 9159:1 
0.19087869397378 0 76:1 253:1 295:1 1584:1 3338:1 6223:1 8131:1 9355:1 9649:1 10173:1 
1 0.2711357743560757 7996:1 
0.2558365989865472 0 85:1 246:1 528:1 2878:1 4569:1 6024:1 6406:1 9511:1 10332:1 
0.2208665966383993 0.00362529032781228 288:1 371:1 3771:1 3950:1 4388:1 5790:1 6398:1 
0.5377774769893992 0.008621891339206461 6254:1 6258:1 6776:1 6862:1 8790:1 8911:1 9385:1 9674:1 10072:1 
0.95304930271822 0 2019:1 3338:1 3974:1 4447:1 10250:1 
0.4386133618239249 0 27:1 605:1 1274:1 2662:1 2835:1 2996:1 3013:1 5146:1 7036:1 8119:1 8438:1 
0.26512487046626 0 2019:1 2359:1 3974:1 4235:1 7580:1 7759:1 9088:1 
0.0816369007413761 0 3181:1 4359:1 4378:1 5359:1 5649:1 6033:1 6406:1 6683:1 7015:1 9159:1 9409:1 9807:1 
0.6141818762324639 0 1549:1 4694:1 5208:1 5825:1 6388:1 6406:1 9126:1 
0.03603146239822552 0 647:1 1853:1 3641:1 3925:1 4724:1 5210:1 5704:1 6353:1 7023:1 9147:1 
0.456920557745271 0.01217153727226029 647:1 1743:1 1951:1 3153:1 5258:1 5686:1 6689:1 7539:1 8629:1 
0.4205618220772051 0.006333949525122932 431:1 3828:1 7540:1 9373:1 9855:1 
0.02378351325951798 0 388:1 2268:1 2343:1 2937:1 2999:1 3705:1 3872:1 4720:1 4873:1 5166:1 6070:1 7066:1 8700:1 9740:1 9741:1 
0.2770101297410227 0 574:1 1663:1 3930:1 4538:1 5224:1 8750:1 
0.05299969230070093 0 2073:1 2239:1 4542:1 5215:1 5224:1 6388:1 6407:1 6589:1 8241:1 8318:1 9551:1 
0.131265215657826 0.02930829432772286 305:1 3166:1 7360:1 7874:1 9163:1 9932:1 
0.2522429101619054 0.02179945975263927 253:1 587:1 647:1 1197:1 3385:1 5701:1 9461:1 9863:1 
0.4591079800738152 0.04448484063980242 1365:1 2310:1 8035:1 9011:1 
0.8094882352010082 0 190:1 1035:1 1203:1 1663:1 2911:1 5204:1 8413:1 10329:1 
0.6829763850252234 0 746:1 3471:1 5359:1 
0.1501642935964611 0.006905225862464561 204:1 528:1 685:1 3071:1 3909:1 6044:1 6406:1 6541:1 6677:1 8909:1 8944:1 9017:1 10040:1 
0.2032727553063983 0 288:1 2972:1 3756:1 4144:1 6536:1 7655:1 8306:1 8911:1 10282:1 
0.4745119629000498 0.005605386295038781 647:1 2415:1 3095:1 4447:1 5378:1 9876:1 
0.7690625902869491 0 3277:1 3362:1 6406:1 9662:1 
0.6716524048549289 0.1520567254706604 2515:1 4677:1 
0.2206177255855585 0 1382:1 1663:1 2073:1 3828:1 6075:1 6388:1 8937:1 9876:1 
0.3877338092547022 0 989:1 2231:1 2367:1 2586:1 2714:1 6152:1 6806:1 8219:1 9388:1 9588:1 10287:1 
0.2288528977110671 0.04473888955440854 105:1 491:1 1354:1 2661:1 3181:1 3207:1 5259:1 6383:1 6706:1 7336:1 7580:1 8131:1 8484:1 8504:1 9105:1 9217:1 
0.1238120554357711 0.00697327983587802 536:1 2744:1 3457:1 3728:1 5278:1 5290:1 5995:1 7128:1 7713:1 
0.3172821236119625 0.01706282989865979 1804:1 1855:1 5685:1 6762:1 7059:1 7822:1 10036:1 
0.2991689141164768 0.01795527261405605 346:1 948:1 1101:1 1631:1 1933:1 2615:1 5277:1 5376:1 5743:1 5744:1 6793:1 6990:1 7842:1 7971:1 8323:1 
0.1100170933093023 0.001110505524527438 785:1 3529:1 3588:1 4060:1 5629:1 5728:1 6660:1 8943:1 10297:1 
1 0.03639936099052034 126:1 141:1 6234:1 8587:1 
0.7505882224461857 0 253:1 1663:1 2662:1 3181:1 3531:1 4607:1 4960:1 6923:1 8241:1 8914:1 9495:1 
0.06208955610679605 0.06861073035779278 415:1 915:1 937:1 1084:1 2304:1 3736:1 5744:1 6156:1 6795:1 7315:1 8558:1 10311:1 
0 0.05313939108180955 2110:1 2397:1 4189:1 6810:1 
0.2733703723670182 0.06328012553530665 1800:1 2086:1 2335:1 3580:1 3766:1 4236:1 6640:1 8172:1 8487:1 9022:1 9252:1 9360:1 
0.139687803636224 0 1707:1 2603:1 4620:1 5419:1 6572:1 9302:1 10212:1 
0.6270313592513875 0.09281758765419185 4965:1 5761:1 9091:1 
0.6550926981860092 0.1519761296467996 239:1 7777:1 
0.7035649603872815 0.2667298105360365 4747:1 4750:1 6152:1 6894:1 
0.2198713992498159 0 4142:1 5972:1 6406:1 6670:1 7126:1 7681:1 10152:1 
0.1077813025689574 0.1043919025769824 528:1 692:1 1903:1 3026:1 5604:1 6566:1 9040:1 9581:1 
1 0.1520655499976309 2787:1 8938:1 
0 0.01982229281654914 1410:1 2604:1 3897:1 7440:1 9465:1 
0.3976617762053689 0.1289952169630981 1235:1 8498:1 
0.368233064295008 0 6315:1 6406:1 6969:1 7953:1 9566:1 9908:1 9932:1 
0.3334706719613164 0 138:1 1448:1 2662:1 3363:1 4091:1 4348:1 4448:1 5333:1 5409:1 5686:1 9818:1 
0.246991110293374 0.001081689572342357 4747:1 5138:1 7917:1 
0.02052939322862949 0 2593:1 2922:1 2993:1 3288:1 3787:1 5588:1 5761:1 6406:1 6685:1 7201:1 7414:1 
0.3108389406527748 0 1007:1 4157:1 6406:1 6937:1 9139:1 
0.1145096642105708 0 539:1 1194:1 2074:1 2269:1 2400:1 3342:1 3728:1 4577:1 6406:1 8735:1 9826:1 
0.04049452151891583 0.03726223297384384 135:1 495:1 720:1 2027:1 5043:1 6607:1 
0.21152472788039 0.01631487690421584 100:1 2607:1 3689:1 3937:1 4083:1 4333:1 6227:1 
0 0.02792866889505213 725:1 3638:1 5241:1 5993:1 8465:1 
0.084807334369122 0 1393:1 3289:1 5189:1 5224:1 7548:1 10016:1 
0.6321250689761342 0.01222865845770625 243:1 1045:1 2073:1 6118:1 9539:1 
0.09362123188255586 0 675:1 2074:1 2201:1 3675:1 6388:1 9391:1 
0.3950400108917027 0 159:1 1663:1 2993:1 5718:1 6406:1 6737:1 9163:1 10081:1 
0.06977964372183045 0.008136658500767509 704:1 1722:1 3910:1 4028:1 4955:1 6214:1 6762:1 7324:1 7756:1 9178:1 9408:1 9763:1 
0.01586863922574716 0 1221:1 1429:1 3004:1 3096:1 3121:1 3305:1 3444:1 3515:1 4161:1 5497:1 5781:1 5933:1 5942:1 6900:1 7163:1 7398:1 7435:1 7800:1 9317:1 9736:1 
0.003249627469749979 0 721:1 954:1 1042:1 1663:1 1707:1 4889:1 4903:1 4916:1 7709:1 8869:1 
0.1370946854231916 0.007784870770798249 598:1 1293:1 1922:1 2107:1 4492:1 4546:1 7951:1 8985:1 8997:1 10340:1 
1 0.005408848719692175 676:1 1686:1 2962:1 9355:1 
0.07153184960086892 0 460:1 1917:1 3263:1 3617:1 4157:1 8631:1 9042:1 10255:1 
0.6779126041537745 0.02931867361999144 5359:1 5586:1 8991:1 9627:1 
0.0298948720832009 0 265:1 2267:1 3121:1 4083:1 5229:1 8272:1 8373:1 9342:1 9766:1 
0.06347344272715888 0 977:1 3008:1 4558:1 5915:1 5989:1 6659:1 7508:1 
0.1395661367545073 0 1663:1 4135:1 4217:1 4919:1 5356:1 5631:1 5828:1 7061:1 8522:1 8602:1 10282:1 
0 0.0002403303539196267 1437:1 2868:1 4083:1 
0.04553358033982531 0 201:1 1663:1 4276:1 4528:1 6033:1 6832:1 6878:1 6901:1 8440:1 8569:1 9498:1 9701:1 
0.2604734070190534 0.02484554559472772 2292:1 2351:1 3774:1 4690:1 6485:1 6793:1 8192:1 9681:1 
0.1680207606914591 0 1035:1 2067:1 3510:1 3606:1 4302:1 5391:1 5903:1 6281:1 7759:1 9991:1 10049:1 
0.6917783411367918 0.03579264924149773 206:1 1491:1 5801:1 6264:1 6762:1 
0.2509497966707341 0 177:1 2019:1 2107:1 2313:1 3466:1 3550:1 4271:1 6406:1 7140:1 8326:1 
0.2650352984461351 0 76:1 989:1 1663:1 2272:1 3266:1 6387:1 6746:1 7818:1 
0.1780493007264123 0.005319716259032994 468:1 1698:1 4094:1 4873:1 5279:1 6762:1 6834:1 9719:1 
0.2948013479598289 0 880:1 1010:1 2724:1 3210:1 3740:1 3816:1 4691:1 4799:1 5076:1 5176:1 6024:1 6048:1 8716:1 8911:1 9314:1 
0.658745831603453 0.02644179144980769 2470:1 3467:1 6392:1 9017:1 9482:1 
0.296293784410618 0 185:1 816:1 2027:1 3232:1 3816:1 6297:1 6947:1 7140:1 8864:1 9358:1 9421:1 
0.008635176869638554 0 2074:1 6406:1 7537:1 9566:1 
0.0506740910275636 0.008302200417788229 514:1 2392:1 2926:1 2964:1 4715:1 6503:1 7289:1 7333:1 7354:1 7511:1 8501:1 8865:1 9095:1 9702:1 9990:1 
0.9196909693249974 0 4163:1 6703:1 9818:1 
0.5100777794554349 0.04183533860052115 288:1 4724:1 9647:1 
0.1057266622063678 0.02145644759940958 631:1 1252:1 1315:1 1544:1 3443:1 6857:1 6998:1 8158:1 9605:1 
0.3918047166046546 0 3136:1 6762:1 6817:1 6857:1 8056:1 9355:1 
0.0205736404782985 0 1326:1 3930:1 3933:1 4181:1 4621:1 6406:1 7400:1 9199:1 
1 0 1437:1 1992:1 5719:1 6406:1 8102:1 
0.07876018712685781 0 2865:1 3534:1 5203:1 6388:1 7071:1 7664:1 10006:1 
0.02461232698301274 0.0006554719156270573 2844:1 3055:1 3349:1 4125:1 4226:1 5056:1 5604:1 6971:1 7060:1 7631:1 9358:1 9428:1 9466:1 
0.05344859682194327 0 1807:1 2166:1 2906:1 6864:1 
0.4723409681461355 0.01259408185885155 490:1 686:1 2662:1 3027:1 3198:1 3996:1 8733:1 9958:1 
0.2442048757970084 0.07390275541357932 3425:1 4287:1 4426:1 4833:1 9418:1 
0.05196824097795835 0 1805:1 2019:1 3953:1 6024:1 9582:1 
0.4228952123681867 0.05128364788104587 1035:1 1428:1 7463:1 8983:1 9492:1 
0.5177998572138588 0 791:1 2002:1 2826:1 4157:1 4820:1 6097:1 
0.9131705913320215 0.0396102704492684 1361:1 2765:1 5448:1 6130:1 6139:1 
0.0007702694451147079 0 76:1 91:1 1439:1 1933:1 4344:1 4617:1 4677:1 5074:1 5379:1 5664:1 5951:1 6406:1 6681:1 8973:1 9953:1 10117:1 
0.9622528512251897 0.09899621958204737 1160:1 3614:1 4181:1 8131:1 
1 0.03465517160592795 7173:1 7722:1 10212:1 
0 0.01936989984861589 953:1 1570:1 2494:1 2766:1 3280:1 5609:1 6534:1 6864:1 7101:1 7617:1 9940:1 
0.3680963729449176 0.02664198397273292 1173:1 1747:1 2264:1 2954:1 8679:1 9163:1 
0.09401877971158679 0.01454178324726824 1163:1 1466:1 1508:1 3237:1 3263:1 4090:1 5058:1 5254:1 6010:1 6022:1 8848:1 9836:1 
0.1940279469329239 0.005266753405703957 207:1 452:1 1083:1 3705:1 4552:1 5582:1 5702:1 6272:1 6738:1 7578:1 8138:1 8606:1 9295:1 
0.1703889051136951 0 1717:1 2858:1 4311:1 5098:1 6406:1 7952:1 
0.4828071652833152 0.02107176527851797 814:1 913:1 1730:1 2114:1 5390:1 5783:1 5786:1 5864:1 10016:1 
0.2216414062151805 0 288:1 1078:1 1985:1 2472:1 4113:1 4187:1 4486:1 4526:1 7747:1 8911:1 9633:1 9845:1 
0.09732826195045144 0.02839085850436203 13:1 625:1 2141:1 3181:1 4133:1 4327:1 6482:1 6574:1 6741:1 6927:1 8249:1 8329:1 8523:1 9037:1 
0.1406627791297725 0 746:1 1599:1 4745:1 5391:1 5428:1 5919:1 8892:1 
0.1821258607755015 0 2110:1 4478:1 5311:1 6406:1 10331:1 
0.2372431021252834 0.01262134858177711 63:1 1213:1 2848:1 4993:1 6315:1 8781:1 9078:1 10139:1 
0.04553152603438942 0 647:1 1599:1 2287:1 2876:1 3047:1 4899:1 5359:1 5691:1 8910:1 9357:1 10116:1 
0.2105510431684299 0.03169949779925425 1330:1 3225:1 4720:1 7700:1 8665:1 
1 0 1391:1 6406:1 7915:1 
0.135255075138323 0 126:1 131:1 1216:1 2680:1 6406:1 6572:1 
0.4343867677981076 0.07222043750328652 6497:1 6769:1 7638:1 7676:1 
0 0.04057404218148002 528:1 1619:1 1707:1 1760:1 2194:1 2916:1 3398:1 6392:1 6563:1 7093:1 8106:1 8568:1 
0.4041493048876754 0 1024:1 2866:1 2956:1 4988:1 6406:1 6730:1 8465:1 9761:1 
0.4675228278975118 0 131:1 762:1 1992:1 1997:1 2777:1 3403:1 4558:1 5080:1 
0.2555099634849051 0.0108927373460785 315:1 984:1 1271:1 2779:1 3370:1 4004:1 4203:1 9908:1 10282:1 
0.1481934151549507 0 506:1 902:1 1035:1 1663:1 3244:1 3902:1 4906:1 5132:1 6330:1 7153:1 7829:1 8569:1 9262:1 10047:1 10125:1 
0.1310273053857762 0 940:1 1163:1 1857:1 2815:1 3362:1 4117:1 7442:1 7743:1 7887:1 
0.3721741463366571 0 253:1 3287:1 4447:1 8206:1 9269:1 9639:1 
0.1157092153396862 0 325:1 1120:1 2402:1 2580:1 2637:1 2815:1 2926:1 3088:1 3428:1 3454:1 6063:1 6124:1 6406:1 6694:1 8768:1 9835:1 10021:1 10289:1 
0.6500342799994164 0 5053:1 6406:1 7637:1 
0.05052727245071743 0 288:1 1360:1 1367:1 2604:1 2708:1 3641:1 3744:1 3975:1 5185:1 5228:1 6130:1 6406:1 9355:1 
0.5760278045578505 0 131:1 498:1 839:1 2073:1 2201:1 3675:1 
0.1165605767303373 0 1939:1 2148:1 2584:1 4555:1 7264:1 8745:1 9102:1 9517:1 9813:1 
0.05013728185476652 0 295:1 603:1 2232:1 2653:1 2662:1 3953:1 4051:1 4269:1 5976:1 6745:1 8315:1 8351:1 8886:1 8922:1 
0.2178474644866906 0 721:1 1426:1 1663:1 4288:1 5522:1 6864:1 9686:1 
0.109028070767649 0 411:1 2520:1 2722:1 4630:1 5496:1 5604:1 6315:1 6577:1 7476:1 7516:1 8286:1 8824:1 9475:1 10000:1 
0.4748336046484317 0.03764423291343277 3045:1 3192:1 4960:1 5264:1 5997:1 7083:1 9855:1 
0.3011694107553588 0.00696872167550681 2384:1 2868:1 5216:1 5989:1 
0.2759906136177583 0 1020:1 1663:1 1723:1 2283:1 5241:1 7176:1 7255:1 10230:1 
0.2765295312290466 0 54:1 1489:1 4003:1 4086:1 4624:1 5258:1 6471:1 9163:1 10186:1 
0.2201369869030339 0.003927152855241377 112:1 818:1 1371:1 3403:1 3569:1 4818:1 5481:1 8556:1 10142:1 10258:1 
0.4006429286603214 0.0338544384232252 528:1 2623:1 6024:1 6406:1 6613:1 8396:1 10202:1 
0.1817391946575372 0.02838471614018668 155:1 430:1 666:1 2926:1 3129:1 4831:1 10070:1 
0.5419324825134511 0.009894711424351423 989:1 4211:1 6921:1 7244:1 8614:1 9693:1 
0 0.05215247482594065 122:1 6604:1 8964:1 8986:1 10283:1 
0.149358500174381 0.01600007635194121 1301:1 5761:1 9188:1 9826:1 
0.1076288173526974 0 676:1 1663:1 2755:1 2962:1 4152:1 8143:1 9156:1 
0.577451748468601 0.02464642484248515 1917:1 3782:1 4115:1 4146:1 6810:1 7128:1 
0.06980673941422869 0 731:1 1663:1 2739:1 3523:1 4964:1 5695:1 6669:1 8220:1 
1 0.004782339879919924 2586:1 5866:1 8127:1 
0 0.01823096959508868 2073:1 2074:1 4860:1 5386:1 6388:1 7682:1 8730:1 10272:1 
0.1819327258796908 0.04931224458919365 2495:1 6649:1 7890:1 
0.04508218494149532 0 1301:1 1395:1 1737:1 2961:1 3100:1 3668:1 3873:1 4177:1 4256:1 5360:1 7822:1 8885:1 
0.1547943584632869 0 309:1 746:1 1210:1 1256:1 4522:1 5210:1 6832:1 7580:1 8667:1 
0.4097776653567259 0.04462535707175826 1316:1 6345:1 6670:1 6963:1 8143:1 9624:1 9818:1 
0.3461302381667172 0 3053:1 3482:1 4221:1 4766:1 6985:1 7587:1 9355:1 
0.05784006718747075 0.01623192369365795 1417:1 6814:1 7118:1 7126:1 8076:1 9915:1 10129:1 
1 0.07080636661437234 4211:1 7274:1 8545:1 
0 0.01557598128479656 3217:1 5497:1 5971:1 
0.2099183010153358 0 163:1 746:1 1737:1 2002:1 4004:1 5394:1 5964:1 
0.4102821059097607 0.01706679113135686 630:1 1663:1 2874:1 3497:1 3774:1 6105:1 6250:1 7237:1 9110:1 9495:1 
0.8560960133092639 0 3482:1 5341:1 7773:1 
0.07268738706033849 0.04446338450739042 731:1 2366:1 2969:1 3104:1 5034:1 5695:1 5912:1 7046:1 8180:1 
0.1121652015036505 0.004640977602796564 546:1 596:1 805:1 1027:1 1292:1 1544:1 2926:1 3426:1 3443:1 3655:1 3898:1 4159:1 5140:1 5910:1 7290:1 7354:1 10164:1 
0.7995182368940633 0 295:1 513:1 7742:1 9358:1 9495:1 10212:1 
1 0.2985074607266846 2166:1 
0.1434161740264174 0 2073:1 2798:1 4288:1 5054:1 5321:1 6670:1 7474:1 8091:1 9654:1 
0.1315928486289057 0.02051417760144411 1465:1 2311:1 4925:1 6946:1 8410:1 8465:1 8595:1 9650:1 
0.5231008750513375 0 131:1 432:1 4139:1 6021:1 6024:1 6406:1 6765:1 
0.06063235489856862 0.008538740242420727 138:1 1584:1 2423:1 2539:1 3058:1 4071:1 5233:1 7250:1 7380:1 7570:1 
0.4896006638731371 0.00726233910582361 528:1 928:1 1956:1 3650:1 3684:1 3719:1 3930:1 4265:1 4376:1 5081:1 9355:1 
0.2601820754900329 0.01036615832451252 230:1 578:1 1071:1 1294:1 2652:1 3024:1 8537:1 9788:1 
0.2531145009211264 0.01610484391321261 521:1 1403:1 2233:1 6703:1 10212:1 
0 0.02032352444017631 424:1 3289:1 4086:1 4176:1 6955:1 8581:1 10016:1 
0.02832893641133884 0.01087801349641349 788:1 4086:1 5193:1 7009:1 9295:1 9566:1 9872:1 10232:1 
0.1354976377238811 0 185:1 407:1 816:1 1327:1 4086:1 6726:1 8268:1 8530:1 8911:1 9355:1 
0.09495414854853861 0 1191:1 1396:1 3583:1 4925:1 5004:1 6517:1 7880:1 8375:1 8550:1 
0.1317704770614627 0 136:1 265:1 370:1 664:1 1575:1 2019:1 2876:1 9830:1 
0.1326611170708928 0 1549:1 2606:1 2874:1 3415:1 4822:1 4856:1 5261:1 6388:1 6621:1 6738:1 8086:1 8606:1 
0.1945881547583605 0 131:1 1946:1 3157:1 3403:1 5447:1 9269:1 9432:1 
0.04731761974597403 0 1035:1 1216:1 4341:1 4972:1 7233:1 7426:1 7788:1 8241:1 
0.5694636434572898 0 5224:1 9066:1 9916:1 
0.232830129083288 0 773:1 1584:1 2411:1 4083:1 4569:1 5268:1 8241:1 8788:1 9818:1 10282:1 
0.3217526113452762 0 1939:1 2187:1 2227:1 5816:1 8885:1 
0.3510628018903229 0.008634298607210792 2631:1 6076:1 6214:1 8368:1 8767:1 9376:1 9472:1 10278:1 
1 0 1367:1 1542:1 1663:1 3237:1 
0.1264782800981603 0.01360065251218552 80:1 1408:1 1484:1 2692:1 3130:1 4626:1 6723:1 6738:1 8438:1 
0.5861213869480118 0.01184764227951644 1559:1 1676:1 4086:1 5376:1 6826:1 8165:1 8423:1 9394:1 9701:1 
0.2367636752505597 0 137:1 251:1 1293:1 3288:1 6406:1 6943:1 8732:1 
0.171930291661019 0 265:1 1058:1 1663:1 1700:1 5647:1 5877:1 6024:1 6747:1 6901:1 7070:1 7821:1 8329:1 9465:1 
0.5663774842211524 0 6944:1 7040:1 7676:1 10173:1 
0.3528268070159433 0 685:1 1035:1 3140:1 4677:1 5137:1 5180:1 9355:1 
0.7807846488052042 0.05328763728159608 595:1 5886:1 7436:1 9405:1 9777:1 
0.1961281669295844 0.03139002200551296 398:1 536:1 936:1 1801:1 3884:1 5003:1 9554:1 
1 0 2586:1 4386:1 4557:1 9887:1 
0.1388511950763029 0.07310134084413721 162:1 988:1 1895:1 5386:1 5419:1 5986:1 8292:1 8911:1 
0.04127310366088338 0.01421830237316492 341:1 1163:1 1255:1 2549:1 2782:1 3165:1 3543:1 3959:1 4516:1 4847:1 8763:1 
0.3096380472817613 0 18:1 411:1 2073:1 3161:1 3217:1 3782:1 3866:1 3981:1 4547:1 4569:1 5407:1 8947:1 9387:1 10242:1 
1 0.1520927554210522 2011:1 8816:1 
0.4456554732922445 0 1182:1 1847:1 5629:1 7729:1 8102:1 8187:1 8864:1 8983:1 9126:1 9358:1 9528:1 
1 0 1663:1 4982:1 7983:1 9840:1 
0.39559053676898 0.03195442442265134 981:1 1043:1 1973:1 3141:1 4644:1 6659:1 8148:1 
0.05448710151986467 0 288:1 694:1 1320:1 4198:1 4825:1 6406:1 6935:1 
0.7309169998029579 0.02150473782865692 1984:1 2586:1 4386:1 8995:1 
0.07320082275880717 0.01574764583374356 1696:1 2632:1 3240:1 6292:1 8061:1 8413:1 8647:1 10174:1 
0.1040611172049906 0.001662628262959713 1457:1 4083:1 5327:1 7680:1 9036:1 
0.3008759149914482 0 1074:1 5475:1 6406:1 9898:1 
0.5890158883047512 0.02618246968877425 2899:1 3617:1 4211:1 7725:1 9959:1 
0.5225532618329999 0.004626773977608762 1596:1 1788:1 2511:1 3380:1 4350:1 4504:1 5461:1 6024:1 7970:1 10037:1 10150:1 
0.229174154043446 0.03377118915983452 920:1 1474:1 2926:1 3801:1 5504:1 5533:1 
0.08824326621869559 0.01403831331105583 692:1 1130:1 2234:1 3921:1 5837:1 6393:1 9323:1 10136:1 
0 0.01603427945496127 30:1 295:1 513:1 2654:1 8964:1 
0 0.02080939369427276 1431:1 1956:1 2604:1 4017:1 4569:1 5216:1 5386:1 6315:1 6912:1 8852:1 
0.2205702069628611 0 133:1 725:1 1737:1 1950:1 4290:1 4414:1 5081:1 7285:1 8241:1 9111:1 9374:1 9499:1 
0.3049900082672719 0 293:1 2659:1 4339:1 4714:1 6406:1 8396:1 8767:1 
0.262740995312623 0.04853164368589948 90:1 3447:1 3715:1 4276:1 5909:1 9244:1 
0.02526468224809174 0 132:1 282:1 3368:1 4621:1 4724:1 4735:1 5468:1 5846:1 5989:1 6640:1 8061:1 8622:1 9764:1 10231:1 
0.5262172357885754 0 527:1 2042:1 3222:1 4349:1 4391:1 6406:1 6941:1 7140:1 
0.2540803285802915 0 357:1 411:1 3900:1 6857:1 7953:1 8587:1 8982:1 9355:1 9643:1 
0.418979197043134 0 253:1 1546:1 2662:1 3331:1 3403:1 4333:1 4665:1 4835:1 5536:1 5560:1 6188:1 6559:1 6621:1 8792:1 9645:1 
0.1043698807904852 0 131:1 528:1 624:1 900:1 3723:1 3940:1 4228:1 4665:1 4997:1 6406:1 8679:1 8911:1 
0.4947911247836437 0 1670:1 2525:1 3117:1 4277:1 5233:1 7223:1 7610:1 8190:1 
0.1524436565369279 0.01170480183713143 623:1 2048:1 3687:1 4339:1 4770:1 5900:1 6955:1 8388:1 9545:1 10189:1 
1 0.1323600313675362 4720:1 5461:1 
0.1826140615040859 0.001408337833541017 415:1 2197:1 5940:1 6478:1 8767:1 9058:1 10146:1 
0.168061664425937 0 141:1 1855:1 2759:1 3930:1 4018:1 4846:1 6024:1 6406:1 9631:1 9987:1 10016:1 
0.1037736577917567 0 746:1 1490:1 3963:1 7036:1 7050:1 8676:1 
1 0.3040096347479787 2322:1 
0.175238287721474 0 647:1 2161:1 2586:1 4150:1 5485:1 6406:1 
1 0.05361291457228817 131:1 314:1 500:1 6718:1 
0.03088865600186059 0 101:1 358:1 2303:1 2332:1 2437:1 3482:1 3816:1 4269:1 4399:1 6886:1 8456:1 
0.06076450904263318 0 184:1 536:1 761:1 1555:1 2882:1 3721:1 5053:1 7082:1 7173:1 8131:1 9227:1 9775:1 
0.4465709560806075 0 455:1 4800:1 5596:1 5629:1 8739:1 9347:1 9753:1 
0.6400410687506313 0.01225389266107018 841:1 1917:1 3389:1 3529:1 6100:1 9342:1 
0.3963616286187632 0 727:1 4078:1 5224:1 6862:1 6935:1 8413:1 8421:1 9485:1 
0.4145103477172353 0.03887057804871297 4724:1 5192:1 7821:1 7953:1 
0.1402295076664979 0 3338:1 5058:1 5303:1 6387:1 7427:1 9548:1 
0.8567621723385571 0 103:1 1294:1 1326:1 5553:1 
1 0 602:1 1367:1 1676:1 3940:1 6406:1 8127:1 8180:1 
0.898815721707235 0 1371:1 1663:1 6670:1 6790:1 7486:1 9278:1 
0.1881468292937007 0 1663:1 3855:1 4157:1 6846:1 8236:1 8634:1 9234:1 9394:1 
0.6189616688964431 0 1193:1 1885:1 4845:1 5333:1 5574:1 6406:1 9415:1 9626:1 
0.04185196054801905 0.001697969844548954 74:1 2181:1 2315:1 3441:1 4932:1 5099:1 5292:1 6380:1 7040:1 7470:1 7530:1 9489:1 
0.1950508697014485 0.006431680390848319 595:1 1647:1 1698:1 6686:1 6726:1 6829:1 8246:1 8391:1 9428:1 
0.6563756369124884 0 1294:1 5208:1 5484:1 6857:1 7953:1 9355:1 
0.6633145978286243 0.09776766666951049 8879:1 9119:1 9469:1 
0.3642364501038473 0.02520168276250528 1278:1 1294:1 1457:1 7513:1 7687:1 10158:1 
0.3756231973600612 0 1663:1 3174:1 3641:1 
0.2065157892458266 0 131:1 393:1 548:1 625:1 861:1 1391:1 1596:1 1758:1 3170:1 4163:1 5942:1 7156:1 8691:1 10239:1 
0.4823812022257756 0.03434208227256025 383:1 1650:1 1813:1 1884:1 2352:1 3248:1 5742:1 7194:1 7506:1 7724:1 9976:1 
0.4324242872608132 0.1323891188268412 3403:1 3448:1 4256:1 8885:1 9454:1 9721:1 
0.06935653393937716 0.04107487154714608 331:1 1748:1 2193:1 5685:1 5943:1 5969:1 8394:1 
0 0.07349619810226638 2168:1 3127:1 4012:1 4750:1 5923:1 5951:1 6735:1 7153:1 
0.2754619488428589 0 1434:1 1577:1 1741:1 1931:1 2073:1 4333:1 6097:1 6738:1 6844:1 7174:1 8885:1 10282:1 
0 0.001291728457175746 1136:1 1163:1 2005:1 2986:1 6790:1 7023:1 8241:1 8684:1 9248:1 10102:1 10150:1 
0.4147264832051582 0 735:1 772:1 4519:1 5606:1 6406:1 
0.7793639609288846 0.148631699351098 845:1 2890:1 
0.2203184330374881 0.01983787630938198 647:1 3874:1 4724:1 5797:1 7878:1 
0.1559453796649742 0.03052815059218448 984:1 1596:1 1629:1 3616:1 3803:1 4466:1 5757:1 6024:1 8413:1 9577:1 9721:1 
0.05634296909024671 0 135:1 7996:1 
0.5097807944979913 0.1023743932315141 1361:1 3953:1 6947:1 
0.4528026121543086 0.07601943682119541 488:1 971:1 3522:1 4950:1 
0.005531198059231448 0 111:1 151:1 647:1 1445:1 1462:1 3472:1 4203:1 5911:1 6817:1 7816:1 8397:1 8413:1 8659:1 
0.3523532883126592 0.01964902537702655 581:1 2019:1 4352:1 8775:1 
0.05532898171734273 0 1556:1 1663:1 5391:1 5468:1 5664:1 6943:1 9062:1 
0 0.02674310379488001 1016:1 4303:1 6330:1 6984:1 8151:1 
0.2353506154233681 0.03310043183447665 45:1 1796:1 2032:1 3458:1 5598:1 6033:1 6742:1 6928:1 7133:1 9162:1 9431:1 
0.9527509522379731 0.03731210139594555 1006:1 4279:1 5254:1 7759:1 
0 0.02381716217140666 1633:1 3381:1 4494:1 6380:1 7139:1 7794:1 8151:1 9504:1 
0.1548959716851414 0.04972973443496047 1039:1 3277:1 3964:1 5246:1 6246:1 6739:1 8132:1 
0.2094996030423262 0.03618018757293481 1698:1 2164:1 4873:1 6320:1 9068:1 9715:1 
1 0.3040683298221695 2490:1 
0.01746581212993947 0 602:1 806:1 1342:1 2619:1 3657:1 3685:1 3940:1 5030:1 5215:1 6406:1 8276:1 8279:1 8332:1 9684:1 10293:1 
0.3275431830524927 0.01640686250601536 1899:1 2010:1 2996:1 3511:1 4280:1 4509:1 4813:1 5657:1 7473:1 
0.3030645802813919 0 647:1 687:1 1607:1 2073:1 2859:1 3194:1 5233:1 5726:1 9674:1 
0.4946827074497631 0 802:1 976:1 1371:1 3950:1 4562:1 6024:1 6234:1 7471:1 8760:1 9355:1 
0 0.01149914146997923 498:1 567:1 816:1 2738:1 3224:1 3447:1 4157:1 5340:1 6989:1 8143:1 9615:1 9739:1 10133:1 
0.3165583108379264 0 1163:1 1557:1 4132:1 4724:1 6406:1 
0.009446925461240773 0 263:1 411:1 602:1 746:1 1463:1 2495:1 2951:1 2971:1 4173:1 5851:1 6640:1 
0.02709292284525649 0 513:1 893:1 1952:1 2306:1 2473:1 3238:1 3758:1 5695:1 5853:1 6024:1 6991:1 7615:1 7974:1 8820:1 
0.1000588743356131 0 440:1 1946:1 2073:1 4431:1 5377:1 5647:1 6185:1 7646:1 
0.2646616123927305 0.01744172468370046 3940:1 4227:1 4504:1 4909:1 5554:1 5604:1 7561:1 8168:1 9657:1 
0.221261700477992 0.01230217693045673 1716:1 4181:1 6024:1 6914:1 7044:1 7119:1 9066:1 9097:1 
0.1686634471846062 0 299:1 324:1 3318:1 3338:1 3520:1 4238:1 4503:1 4665:1 6024:1 6261:1 6746:1 6818:1 8270:1 8877:1 9815:1 
0.0160897416775516 0 380:1 1361:1 3072:1 3274:1 3457:1 4936:1 5180:1 6410:1 8413:1 8522:1 8924:1 10067:1 
0.04672455299868306 0 131:1 1755:1 1799:1 1972:1 2338:1 4656:1 5474:1 6621:1 6639:1 7715:1 8220:1 
0.1092825952702576 0 2110:1 2225:1 3039:1 3876:1 4083:1 5327:1 5874:1 6130:1 6760:1 9465:1 
0.121322437244358 0.06718454253520943 731:1 5835:1 5971:1 8628:1 10338:1 
0.2252673887408542 0.01374029965334246 3311:1 3487:1 5894:1 5914:1 6722:1 7343:1 7746:1 8311:1 9126:1 
0.3474573922674811 0 54:1 284:1 1326:1 3930:1 5942:1 6197:1 6406:1 
0.3027831640501888 0.1218369523428516 2290:1 3106:1 3896:1 4800:1 5041:1 6406:1 8743:1 10173:1 
0.4384421700774416 0 190:1 895:1 1336:1 3930:1 6406:1 6862:1 8339:1 8921:1 
0.1898040253044049 0.0964152772202366 2485:1 3471:1 7441:1 
0.7698456231603315 0.02578046337209942 542:1 1784:1 2586:1 6670:1 
0.05217267983221004 0.1249225795520459 3338:1 5386:1 5586:1 7880:1 9804:1 
0.06040148834785818 0.02115960062380873 1201:1 2207:1 2318:1 3377:1 5281:1 6465:1 6603:1 7346:1 9363:1 10181:1 
0.1607987000441827 0 411:1 1963:1 2643:1 2996:1 3529:1 8230:1 
0.7960963255974596 0.1380431090673156 431:1 9678:1 
0.5369028444434224 0 125:1 4211:1 6406:1 6419:1 9259:1 9573:1 
0.8287063268630255 0 1663:1 7537:1 9013:1 9417:1 
0.1605370426030262 0.02811056031327464 1070:1 1670:1 1873:1 1999:1 6488:1 6670:1 7149:1 9139:1 
0.4295348088115925 0 1120:1 3940:1 4310:1 4578:1 4899:1 6345:1 8165:1 8464:1 9908:1 
1 0.218772064563337 253:1 
0 0.02542884041486944 1321:1 2391:1 5554:1 7067:1 7241:1 10283:1 
0.04539518871221232 0.005354289122842568 73:1 1321:1 1344:1 1412:1 2099:1 2334:1 2455:1 3865:1 3930:1 6715:1 8290:1 9014:1 9046:1 10273:1 
0.4116446325612891 0.00583012848856589 1878:1 7880:1 8418:1 8885:1 
0.1151029860775296 0 422:1 1294:1 1676:1 1883:1 3713:1 5274:1 5643:1 7908:1 8662:1 8911:1 9159:1 
0.1808136298769619 0 57:1 1323:1 1699:1 2190:1 2495:1 2929:1 4658:1 5468:1 5653:1 6657:1 6764:1 7422:1 7767:1 9993:1 
0.2747678361492722 0 1846:1 3038:1 3883:1 4276:1 6832:1 8683:1 9244:1 9803:1 
0.2541596729239077 0.01091704908477243 1729:1 2091:1 2395:1 4285:1 5391:1 7293:1 7348:1 
0.05296776839641846 0 746:1 1163:1 4086:1 4588:1 5019:1 5676:1 6565:1 6973:1 7463:1 10013:1 
0.624112549021618 0.05414619466531392 731:1 1649:1 7439:1 9355:1 
0.3311739214341554 0 4337:1 5528:1 6406:1 6502:1 10040:1 
0.2415351379677307 0 1141:1 1506:1 2310:1 3450:1 4284:1 5383:1 6315:1 7027:1 8461:1 8986:1 
0.3458117113630242 0 2073:1 4243:1 10217:1 
0.003738900297413738 0 411:1 1452:1 1663:1 2812:1 3013:1 3389:1 4271:1 5053:1 6840:1 8012:1 8837:1 9239:1 9469:1 
0.5626773030041454 0.06089766514996963 761:1 3304:1 3476:1 6520:1 7332:1 
0.006412578307524114 0 1003:1 1396:1 1555:1 1929:1 2753:1 3264:1 3529:1 4157:1 4916:1 4933:1 5451:1 5759:1 6480:1 8710:1 9844:1 
0.7842591236493025 0.04422778602205185 5453:1 6670:1 8863:1 10222:1 
1 0.3040645248957442 55:1 
0.4504376951422282 0.009948811322414574 1884:1 2320:1 4637:1 5761:1 6862:1 7040:1 9394:1 9889:1 
0.3509195261985589 0 131:1 1676:1 2215:1 2238:1 3060:1 3121:1 4626:1 5376:1 5920:1 7153:1 7514:1 7759:1 8438:1 
0.2611730123267866 0.05302051634736676 1922:1 7426:1 9499:1 9835:1 
0.3954030773310815 0 908:1 3159:1 3668:1 4617:1 5483:1 7241:1 10048:1 10088:1 
0 0.006142488392999612 746:1 895:1 1336:1 2150:1 4312:1 4642:1 7782:1 8321:1 10303:1 
0.4664880199735641 0.005102272077954215 483:1 486:1 818:1 1646:1 2061:1 3412:1 3996:1 5447:1 5677:1 6155:1 7962:1 8701:1 10102:1 
0.3165124343285679 0 1296:1 1996:1 2019:1 2237:1 7553:1 8165:1 8221:1 8613:1 8947:1 10282:1 
0.2932354500443868 0 1853:1 2423:1 4019:1 6315:1 8709:1 9915:1 
0.5710242892129251 0 1663:1 2279:1 3702:1 6197:1 6450:1 7618:1 8251:1 9215:1 9578:1 
0 0.01047141833419211 409:1 1417:1 6670:1 6790:1 7014:1 
0.1294375274834128 0 1194:1 1565:1 5874:1 6163:1 6406:1 6679:1 8564:1 9244:1 9917:1 
0.2791384067494236 0 587:1 647:1 2328:1 5224:1 6365:1 6406:1 6660:1 8290:1 8553:1 
1 0.3039400763105368 6935:1 
0.009087220885683641 0.0163868190603584 50:1 231:1 5358:1 5512:1 5979:1 6224:1 6420:1 6607:1 6983:1 8476:1 8966:1 
0.04077426934501546 0.0748790032264592 76:1 731:1 2495:1 3551:1 
0.2090996713407085 0.007896590969961214 281:1 647:1 2554:1 3216:1 3362:1 3652:1 4556:1 5768:1 8018:1 8551:1 8607:1 
0.06468390396030752 0 647:1 1961:1 4083:1 4303:1 4850:1 5604:1 6457:1 
0.2646949027037727 0.06757361367038411 172:1 7152:1 9429:1 
0.1576505214762649 0 868:1 1008:1 2310:1 4800:1 5359:1 6447:1 6849:1 9094:1 
0.3599746932482629 0 1455:1 2423:1 4155:1 7036:1 8102:1 8618:1 8846:1 
0.03976240017014995 0 4569:1 5435:1 5661:1 6407:1 6640:1 6790:1 6818:1 8929:1 
0.09425593689565215 0 1294:1 1585:1 1766:1 2632:1 6739:1 8988:1 
0.5359982170591024 0.08950857806914229 7071:1 7522:1 7850:1 
1 0 1663:1 6024:1 8151:1 
0.6943007897208325 0.04621281024011924 679:1 777:1 6832:1 7591:1 
0.6451759701978012 0.05047067463762003 54:1 5583:1 7395:1 10282:1 
0.9688205135697559 0.1389337142116658 623:1 2147:1 
0.6213892037999917 0.131293919031395 5215:1 6013:1 
0.5748690529840037 0.07849543741160456 1021:1 5701:1 9998:1 
0.2039507594468308 0 85:1 647:1 1571:1 2000:1 3593:1 7153:1 7191:1 8138:1 8241:1 8875:1 9205:1 
0.08383286871775274 0.03559430200024768 2826:1 5958:1 7923:1 8429:1 
0.6958225385676237 0 701:1 6406:1 8429:1 9711:1 10134:1 
0.1880884943409605 0 749:1 1885:1 3277:1 6024:1 6406:1 
0.02873927920195788 0 706:1 746:1 1107:1 2495:1 3266:1 3392:1 5452:1 6985:1 
0 0.01367072360075461 411:1 1209:1 3071:1 4271:1 7676:1 9035:1 
0.1601605808872033 0 756:1 4157:1 5522:1 6406:1 7708:1 
0.3193483536189657 0.0275420231592858 854:1 992:1 1800:1 3831:1 4221:1 6130:1 6558:1 6818:1 8323:1 8487:1 9500:1 
0.2855711779912432 0 131:1 5215:1 6406:1 6661:1 
0.2741737721774017 0 1414:1 2564:1 3412:1 4648:1 5674:1 6406:1 9148:1 9355:1 
0 0.03284424097529114 1216:1 1396:1 3022:1 4712:1 
0.1580239495944231 0 1434:1 1564:1 7535:1 8224:1 8241:1 9355:1 9713:1 9930:1 
0.2081070997090691 0 629:1 1095:1 2272:1 2363:1 3886:1 3961:1 6095:1 6901:1 8932:1 
0.1173592650031679 0 222:1 1236:1 2996:1 3338:1 3538:1 4918:1 5359:1 5509:1 6923:1 7509:1 7646:1 10148:1 
0.2392645216064888 0.00031382056698523 505:1 681:1 2716:1 3485:1 3565:1 4033:1 4311:1 4975:1 6069:1 6229:1 7056:1 7284:1 7531:1 8645:1 9266:1 9990:1 
0.169953484538134 0.0233611351697382 2529:1 3226:1 3282:1 4631:1 5237:1 6097:1 6806:1 9086:1 
0.01699439135438826 0.06493458728794722 36:1 1739:1 3554:1 4344:1 5386:1 5753:1 6198:1 6531:1 6535:1 8053:1 8750:1 10006:1 
0.1857063256027713 0 2073:1 2960:1 6252:1 6537:1 7833:1 8112:1 9703:1 
0.0609643698998131 0.01957743824965261 462:1 1120:1 1255:1 4003:1 4665:1 4699:1 4702:1 7495:1 7743:1 
0.1348374369252492 0.02336924734370163 65:1 1109:1 1536:1 4048:1 5843:1 6689:1 6746:1 7173:1 7505:1 8442:1 
0.1934643877977183 0.01793015570524473 519:1 528:1 647:1 3700:1 3876:1 4188:1 5778:1 6313:1 6406:1 7073:1 7140:1 
0.2624156985848543 0 1342:1 1663:1 2011:1 2767:1 2829:1 4112:1 4543:1 7580:1 8074:1 8131:1 9669:1 
0.1023442402120996 0 76:1 1003:1 1193:1 1663:1 3497:1 4964:1 5236:1 7173:1 8067:1 10015:1 
0.4690807720187979 0.02416907641038105 89:1 295:1 3610:1 5325:1 7523:1 9645:1 
1 0 126:1 131:1 1663:1 4569:1 5378:1 
0.4598756371925959 0 363:1 1417:1 1859:1 2532:1 7536:1 8885:1 9042:1 
0.3817463923448634 0.004375621707182844 407:1 647:1 1690:1 3051:1 3163:1 3394:1 3833:1 6842:1 7399:1 8200:1 9239:1 
1 0 6027:1 6398:1 6406:1 
0 0.005524555678267223 1202:1 2166:1 2423:1 2586:1 3207:1 3990:1 6406:1 6747:1 7112:1 8585:1 9646:1 
0.1723692513966999 0 2904:1 2926:1 5138:1 6895:1 8332:1 8441:1 9434:1 
0 0.04731249244184557 1933:1 4937:1 8102:1 8489:1 
0.2016062562000573 0.03193305824174632 2345:1 4997:1 8544:1 9111:1 10032:1 
0.05041907503194481 0 131:1 647:1 746:1 843:1 2603:1 2859:1 4672:1 5329:1 9302:1 10256:1 
0.5626586606165893 0 1070:1 1939:1 2096:1 3020:1 4607:1 6406:1 
0.3571852916831843 0 6:1 731:1 1663:1 2073:1 3578:1 6983:1 7773:1 9732:1 
0 0.01998989548355398 1885:1 2141:1 5138:1 9499:1 10152:1 
0 0.003021784869163195 647:1 670:1 1193:1 1930:1 2453:1 5315:1 5735:1 6211:1 6614:1 6683:1 7128:1 8455:1 9526:1 
0.1508833816291062 0.004327195271805858 712:1 1410:1 1555:1 2191:1 4187:1 4421:1 5391:1 6587:1 6722:1 8556:1 10185:1 
0.2881355942737402 0.007533540114823274 168:1 647:1 1309:1 1417:1 3470:1 4333:1 5396:1 7218:1 7299:1 7555:1 9229:1 
0.6452426786978317 0 54:1 2035:1 4135:1 4217:1 4769:1 5224:1 5828:1 7627:1 9142:1 10138:1 
0.2730849424074105 0 795:1 932:1 1817:1 1923:1 3876:1 3894:1 6000:1 6773:1 6832:1 7770:1 7840:1 7930:1 8108:1 8961:1 9498:1 
0.9411152939821793 0 1010:1 2539:1 5224:1 8200:1 
0.1397470358818851 0 1099:1 2125:1 3163:1 4358:1 4485:1 4851:1 5880:1 6901:1 7191:1 7369:1 7676:1 8172:1 9301:1 
1 0.03835619210650453 2201:1 3574:1 3675:1 5886:1 6024:1 
0.04228242961440634 0.02962859067899235 1029:1 4154:1 4918:1 4964:1 6513:1 8019:1 
0.121125301152938 0.01662489225495209 822:1 1814:1 2638:1 2820:1 3053:1 4250:1 4744:1 7215:1 
0.2902211693032136 0 387:1 1597:1 1969:1 3107:1 3833:1 4256:1 5639:1 7036:1 8081:1 8770:1 9365:1 9676:1 9855:1 10105:1 
0.4988285352981411 0.09922402818020605 5497:1 10212:1 
0.4834050152691697 0.02350771598508083 1158:1 1477:1 3121:1 4873:1 8730:1 
0 0.002393848822092849 1696:1 2682:1 3471:1 4271:1 5545:1 8991:1 10121:1 
0.8599262721618217 0.01395246100790039 502:1 3610:1 7627:1 8367:1 8911:1 
0.4288737942692524 0.01897126310609612 126:1 152:1 1246:1 4323:1 4607:1 5052:1 8204:1 9127:1 
0.3941323865163664 0.002838600140932196 2184:1 3374:1 5546:1 7066:1 8353:1 
0.2749171972355914 0.01758349612466286 731:1 4083:1 4379:1 5327:1 6347:1 8741:1 
0.9927208058612471 0.2040314661749609 5579:1 8767:1 
0.05128740826109311 0 296:1 1918:1 2785:1 2834:1 2988:1 3166:1 3539:1 5318:1 7484:1 8230:1 8911:1 9355:1 9602:1 
0.1653638686876613 0 746:1 912:1 1029:1 1557:1 2626:1 5391:1 6020:1 8279:1 9355:1 9627:1 
0.1632976299312504 0.03618011654648966 3315:1 4055:1 4468:1 7479:1 7484:1 7497:1 9124:1 
0.1398151286174696 0 1483:1 2295:1 6152:1 6406:1 6536:1 6667:1 6832:1 10329:1 
0 0.03335435692133894 60:1 786:1 2144:1 3828:1 4083:1 4887:1 8151:1 9219:1 9588:1 
0 0.0327681619011259 4004:1 4065:1 9269:1 9482:1 9728:1 
0.1772025126341887 0.0293609327653226 3883:1 4012:1 4428:1 6790:1 9092:1 
0.02246434474094252 0 1663:1 3309:1 9342:1 10016:1 
0.07761991001027151 0 1592:1 2586:1 3512:1 4386:1 4665:1 5517:1 6450:1 9517:1 
0.1446426654163605 0 565:1 731:1 906:1 1688:1 2642:1 5080:1 5771:1 7036:1 7737:1 8964:1 9161:1 10041:1 
0.09661178225137501 0 699:1 2515:1 4989:1 6406:1 6909:1 7743:1 7937:1 8489:1 9469:1 
0.06604687102529763 0 3796:1 5837:1 6406:1 8836:1 
0.3642389381115954 0.03342098145095589 554:1 1417:1 1741:1 9000:1 9562:1 10225:1 
0 0.04143021691146064 528:1 4083:1 5215:1 6392:1 7209:1 7457:1 8089:1 9726:1 
0.3100407131812003 0.07191146877075917 2638:1 3892:1 7468:1 7695:1 
0.3349447973744449 0.05178398818404178 1584:1 3692:1 5468:1 10109:1 
0.1423599012486354 0 1737:1 1884:1 2904:1 3228:1 3620:1 6406:1 6790:1 8818:1 9048:1 9674:1 9739:1 10128:1 
0.4671340114119642 0.003672379434381906 1638:1 6763:1 6916:1 
0.4888670629567303 0.02752492380762257 647:1 2053:1 2456:1 2844:1 6166:1 6509:1 7729:1 9352:1 9829:1 
0.02148328932552621 0 1107:1 1410:1 1417:1 1663:1 2552:1 3114:1 4618:1 5034:1 5330:1 6950:1 7017:1 10273:1 
0.02983324629857165 0 744:1 1267:1 1892:1 2170:1 2692:1 2926:1 3009:1 3425:1 3440:1 4281:1 5482:1 6717:1 7354:1 7402:1 7420:1 7542:1 7598:1 9062:1 9561:1 
0.5367382796916118 0 868:1 1939:1 2279:1 3161:1 3386:1 3415:1 4754:1 4822:1 6388:1 6476:1 6762:1 10255:1 
0.3907352095325769 0 3460:1 5267:1 6315:1 7607:1 8241:1 10171:1 
0.2482176729198547 0.066511125966075 1737:1 1777:1 6815:1 8205:1 
0.08443839579929965 0 76:1 1371:1 2395:1 2566:1 3363:1 7759:1 8722:1 
0.187930615708193 0.009163347273780447 76:1 2729:1 3840:1 6223:1 6670:1 7026:1 7552:1 10265:1 
0.4397039859395039 0.05347783113069639 253:1 1800:1 2227:1 5352:1 8620:1 9355:1 
0.566648238008807 0 190:1 627:1 1307:1 2284:1 4276:1 5344:1 7407:1 9460:1 
0.5153152033890867 0 1198:1 1663:1 2967:1 5431:1 8911:1 9203:1 
0.07754787913479086 0 411:1 1186:1 3816:1 4724:1 4965:1 5874:1 9766:1 
0.2673864579720414 0 753:1 1791:1 4057:1 4857:1 6406:1 6419:1 7953:1 9105:1 9729:1 
0.7626966707272125 0 288:1 1287:1 3219:1 3403:1 3733:1 4269:1 
0.1966473902492859 0 647:1 1426:1 1621:1 1663:1 2868:1 3277:1 4221:1 4288:1 4434:1 5923:1 6098:1 9685:1 
0.3098091920925435 0 647:1 3412:1 3719:1 3963:1 5224:1 6024:1 8916:1 9461:1 10016:1 
0.03136076327249385 0 487:1 2574:1 3024:1 3121:1 3344:1 3531:1 5637:1 5652:1 6047:1 7217:1 7251:1 8460:1 9205:1 9576:1 9969:1 10212:1 
0.4651000077659551 0.1275020230588314 731:1 2014:1 3487:1 3490:1 7283:1 9823:1 
0.05812921357312695 0 895:1 1336:1 1663:1 2068:1 2302:1 2922:1 4105:1 4450:1 4873:1 4963:1 4968:1 5301:1 6406:1 6591:1 6595:1 8306:1 9889:1 
0.5067656447295237 0.007790421325529574 639:1 2219:1 3072:1 6901:1 7469:1 7603:1 7729:1 8916:1 
0.1197882103245178 0.01776830889656104 130:1 3300:1 3592:1 3702:1 3940:1 4218:1 8499:1 8850:1 9355:1 
0.0920441299510901 0.003418003147897086 935:1 1163:1 2472:1 4724:1 6103:1 6687:1 8970:1 9566:1 
0.3021979695198339 0 1093:1 3418:1 3602:1 5872:1 6326:1 6857:1 8241:1 8965:1 9085:1 
0.4564276793886529 0.02531642649653272 868:1 1281:1 2607:1 3152:1 5569:1 
0.2137565502353638 0.004132288183037109 370:1 2926:1 3134:1 4248:1 4265:1 6270:1 7289:1 7370:1 9483:1 
0.4567371668269235 0.3232045375871782 528:1 7365:1 9062:1 
1 0 1663:1 4157:1 8465:1 
0.1203412132114764 0 44:1 265:1 1163:1 1381:1 1555:1 1802:1 2019:1 3110:1 3276:1 3989:1 4625:1 4644:1 6566:1 8241:1 9244:1 
0.2928780049284612 0 1596:1 1916:1 2073:1 2932:1 3611:1 3895:1 5233:1 5570:1 6566:1 6607:1 7531:1 9755:1 
0.1551798024857114 0.01721769663775979 1650:1 2662:1 3964:1 5760:1 8147:1 8209:1 
1 0 2423:1 3943:1 5656:1 6621:1 8241:1 
1 0.05979017410374726 6607:1 8767:1 
0 0.01144677012100193 240:1 1492:1 2295:1 4899:1 7652:1 7878:1 8814:1 10014:1 
0.8362696917259203 0.05490552316268595 1270:1 1716:1 6914:1 9887:1 
0.3888700654138111 0.06994435642470724 380:1 890:1 5229:1 10081:1 
0.1039666016438747 0.007945309246195796 411:1 6228:1 8001:1 8035:1 8044:1 8363:1 8982:1 9863:1 
0.1783279720457783 0 3676:1 6406:1 7878:1 8653:1 10255:1 
0.1572896078250204 0 1232:1 1663:1 2372:1 2525:1 3676:1 3859:1 4333:1 5080:1 7819:1 8360:1 10195:1 
0.3924084897538536 0 465:1 2222:1 3771:1 3982:1 5224:1 5930:1 6315:1 6890:1 8399:1 8860:1 9172:1 
0.1531537060724436 0 2604:1 6264:1 6406:1 7801:1 8215:1 
0.1915956480132262 0 13:1 95:1 1594:1 4484:1 7239:1 8241:1 8531:1 8911:1 
0.9809601324754377 0 578:1 746:1 2938:1 4095:1 9063:1 10173:1 
0.2381792977553234 0 212:1 2054:1 2926:1 3191:1 3526:1 3858:1 4871:1 5629:1 6541:1 7382:1 7629:1 7714:1 9680:1 
0.8127274095251091 0 1035:1 5391:1 5604:1 6018:1 9355:1 
0.1638252804628733 0.05471039644818767 7563:1 7566:1 8968:1 10222:1 
0.04502332193384279 0.005426481722460329 2283:1 2444:1 2586:1 2870:1 4157:1 5317:1 
0.1629814538094235 0.005775870642738437 582:1 1682:1 3234:1 5506:1 5629:1 5839:1 7026:1 7274:1 8601:1 8726:1 
0.239980159681333 0 44:1 288:1 508:1 1538:1 2212:1 5354:1 5540:1 5580:1 5727:1 6041:1 7415:1 7532:1 7566:1 8067:1 8222:1 9149:1 
0.1686161097886871 0.02878336418248534 1286:1 2588:1 3346:1 4163:1 4371:1 8864:1 9536:1 9744:1 9946:1 
0.005747025357943264 0 341:1 3161:1 3526:1 3803:1 4625:1 5377:1 6419:1 7270:1 8241:1 8885:1 9001:1 9042:1 10343:1 
0.640693133859462 0 3537:1 5997:1 6901:1 8743:1 9931:1 
0.2188112518369348 0.0917704917756659 4157:1 6621:1 
0.2940418407244436 0 4404:1 6408:1 6818:1 7141:1 9479:1 
0.09299783163804179 0 54:1 284:1 557:1 1788:1 1970:1 3561:1 4296:1 5827:1 6946:1 7712:1 7889:1 9544:1 10336:1 
0.3477707476050345 0.0589103654806285 753:1 2681:1 6090:1 7448:1 
0.5998826093238548 0.006341393412915968 746:1 1901:1 2719:1 3288:1 4786:1 5597:1 7758:1 
0.4202200362620998 0.05312335932385217 5809:1 6901:1 
0.2643386753112488 0 54:1 647:1 1989:1 2636:1 2763:1 3195:1 3409:1 3447:1 3962:1 5053:1 6082:1 7795:1 8032:1 8127:1 9469:1 
0.01947335216892925 0.01795582229412042 3163:1 4432:1 4531:1 5568:1 7296:1 7545:1 10152:1 
0.06684972648447977 0.01520891792393785 44:1 1416:1 1625:1 2401:1 2576:1 4271:1 6034:1 6661:1 
0.6322445964926946 0 4594:1 5908:1 6406:1 8836:1 
0.2723593021615886 0.01311074923044626 1093:1 1301:1 1553:1 2875:1 3198:1 3702:1 6308:1 10229:1 
0.2462796723042021 0 370:1 1301:1 2643:1 2662:1 4788:1 5498:1 9791:1 
0.1069948746552052 0.0055747950855224 758:1 1295:1 2518:1 3403:1 4242:1 4897:1 5609:1 6220:1 6665:1 7158:1 7698:1 9470:1 
1 0.03556684285966388 3803:1 7863:1 8647:1 
0.09284026335768131 0.1052696112693028 2430:1 3374:1 4271:1 5386:1 5546:1 5967:1 6260:1 9846:1 
0.2042931228991919 0.07958254865232668 528:1 1452:1 1528:1 2093:1 2640:1 4017:1 4271:1 8274:1 
0.3075160956287584 0 1163:1 1853:1 2307:1 4053:1 5391:1 6728:1 7520:1 8903:1 10282:1 
0 0.0192774735053589 446:1 1010:1 1337:1 1396:1 2910:1 3629:1 7953:1 8143:1 9511:1 
0.01317811820039809 0 716:1 2019:1 2445:1 2864:1 4545:1 5290:1 5438:1 6901:1 6946:1 7813:1 9636:1 9823:1 
0.3056708520904215 0.03773704389094707 4401:1 6190:1 6197:1 8589:1 9289:1 9852:1 
0.0495748252489498 0 76:1 2073:1 2395:1 2733:1 4163:1 9625:1 
0.3916626568021977 0.02353470566611679 2046:1 3432:1 5255:1 6762:1 
0.2201943715704809 0 2084:1 5971:1 6406:1 7647:1 7987:1 9411:1 
0.4280388455412248 0 647:1 2402:1 2926:1 4677:1 5363:1 6398:1 7629:1 7755:1 
0.1484326261066057 0.01058861196662468 353:1 2839:1 2993:1 4493:1 4617:1 7761:1 
0.4145181827638567 0 602:1 1290:1 2662:1 3816:1 4619:1 4763:1 5192:1 5993:1 6851:1 9869:1 10133:1 
0 0.0119373254821023 1153:1 1405:1 1434:1 1555:1 2155:1 3143:1 5895:1 6650:1 7277:1 7920:1 8675:1 8877:1 9288:1 
0.05886081280361607 0 251:1 652:1 770:1 2497:1 3272:1 3923:1 3940:1 4017:1 5177:1 6110:1 6406:1 7233:1 7837:1 8911:1 
0.2272373062745778 0 1417:1 1917:1 2240:1 3529:1 4157:1 4233:1 5379:1 8138:1 8885:1 
1 0.104293850368851 1301:1 2736:1 
0 0.001557270770466477 1489:1 4208:1 6187:1 6342:1 7395:1 7676:1 8323:1 8461:1 9803:1 
0.289599211064526 0 647:1 713:1 4297:1 5224:1 6640:1 7054:1 9505:1 10192:1 
0 0.01470842128009967 340:1 721:1 1132:1 1299:1 1526:1 3195:1 9457:1 
0.1692939297558957 0 647:1 1042:1 4883:1 5760:1 9511:1 
0.3252016657426837 0 1929:1 2358:1 3753:1 4539:1 6316:1 6406:1 6881:1 7058:1 8710:1 9712:1 
0.2275162323983179 0 937:1 1432:1 1880:1 3055:1 4769:1 4799:1 4976:1 5210:1 6076:1 8623:1 8801:1 8911:1 
0.01750319855236284 0 1663:1 2166:1 2656:1 4710:1 5497:1 10073:1 
1 0.2002650504613585 8902:1 
0.6666167078055176 0.05597713684750471 5327:1 8610:1 9511:1 
0.1260372808425601 0.008690121711269002 2943:1 3617:1 3705:1 4127:1 4174:1 4307:1 4598:1 6566:1 8132:1 8514:1 8742:1 9448:1 10072:1 
0.2979776795735252 0.03289324672574933 264:1 2310:1 4155:1 7759:1 
0.2756613404971444 0 2540:1 3163:1 3950:1 5650:1 6406:1 6661:1 6719:1 8117:1 8241:1 8692:1 9072:1 9074:1 
0.6699170084880134 0.1149654648060128 120:1 2524:1 3279:1 5774:1 6301:1 6832:1 
0.6598287100630553 0.02903478038071656 2401:1 2527:1 2926:1 7566:1 
0.1756936211751144 0 816:1 2224:1 4899:1 7036:1 8911:1 
0.2636109324718855 0 349:1 647:1 1407:1 1584:1 1598:1 2743:1 4758:1 5341:1 5779:1 6985:1 
0.2311512147650141 0.006504158594340239 3930:1 6612:1 6823:1 7036:1 
0.3712976755045606 0.04796115130823465 1492:1 1510:1 7146:1 8471:1 10088:1 10230:1 
1 0 549:1 1367:1 1663:1 3712:1 
0.1674381840719905 0.01168325431103583 2164:1 4468:1 5054:1 5173:1 5604:1 6867:1 9068:1 9771:1 
0.3816039192597363 0.01466980837150799 27:1 753:1 886:1 1671:1 2511:1 3708:1 4524:1 7256:1 8241:1 8368:1 
1 0 2074:1 5224:1 6284:1 9451:1 
0.6446004128370005 0.002930789810314389 186:1 1663:1 1733:1 2165:1 3960:1 5286:1 9979:1 
0.05323973010965055 0 2385:1 4208:1 4441:1 5667:1 7088:1 7241:1 7338:1 8336:1 9813:1 
0.1077072569281911 0 288:1 317:1 747:1 3090:1 3338:1 3569:1 6612:1 7953:1 8916:1 9355:1 
0.1978264669104178 0.01855961372387039 2295:1 3198:1 3604:1 5468:1 8027:1 8658:1 9474:1 
0.597217412893425 0 6406:1 10283:1 
0 0.02802914885449731 614:1 1012:1 1599:1 3966:1 5000:1 5625:1 6748:1 7049:1 7241:1 8132:1 8911:1 9110:1 9217:1 9927:1 
0.372459634775427 0.02132523031956025 350:1 2881:1 4012:1 4077:1 4166:1 5654:1 6137:1 6546:1 
1 0 411:1 1663:1 5823:1 7712:1 9778:1 
0.3900716385563308 0.01909429022896688 721:1 3170:1 5760:1 6985:1 9544:1 9863:1 10133:1 
0.2280255909452885 0.02380309504250309 742:1 1156:1 2550:1 2926:1 5057:1 6111:1 7037:1 7121:1 
0 0.009749743476586014 153:1 1695:1 2186:1 2482:1 2712:1 3873:1 6105:1 7240:1 8413:1 9766:1 
0.2533312854950374 0 1999:1 3224:1 3721:1 4562:1 5836:1 6069:1 6494:1 6818:1 7017:1 7627:1 
0.1090246137087478 0 76:1 420:1 967:1 2015:1 2203:1 2385:1 4292:1 4351:1 5053:1 6679:1 6873:1 9090:1 9295:1 9495:1 
0.2145536381952545 0 1862:1 2425:1 6406:1 7803:1 8255:1 8829:1 
0.1615209088178577 0.1486377640018327 229:1 234:1 738:1 1260:1 2178:1 3532:1 3546:1 10213:1 
0.07199971453160656 0 224:1 962:1 1361:1 1417:1 1937:1 5024:1 5993:1 9280:1 9382:1 10038:1 
0.1905924278491832 0 1141:1 1469:1 1819:1 3161:1 5102:1 6901:1 8127:1 8241:1 8883:1 8885:1 
1 0.03950438073482179 2495:1 8461:1 9148:1 
0.01803801639999158 0 196:1 2519:1 2932:1 3025:1 3939:1 4181:1 6406:1 8706:1 
0.6265113423763666 0 1663:1 2325:1 4062:1 5321:1 10153:1 
0.1007695840086711 0.01125742595287699 567:1 732:1 2806:1 3146:1 3651:1 7702:1 8159:1 10273:1 
0.05444260368660808 0.003040827063825094 1408:1 1644:1 2147:1 2776:1 2802:1 3167:1 3322:1 6751:1 6928:1 
1 0.09210239130989549 6388:1 9787:1 
0.1270267439748735 0 731:1 2321:1 2972:1 3803:1 5088:1 5247:1 5341:1 5913:1 6502:1 8606:1 
0.6479155121333697 0 763:1 1193:1 1663:1 2298:1 6401:1 6406:1 8901:1 
0.5584502763517646 0 731:1 2019:1 2397:1 3816:1 9436:1 
0.2402153602438817 0 262:1 1272:1 1361:1 3617:1 4467:1 4849:1 5701:1 6607:1 7977:1 
0 0.01894454587413635 1549:1 2643:1 2840:1 2996:1 3086:1 7425:1 8006:1 
0.5204271480526441 0.1014356789287952 1323:1 4557:1 7254:1 
0.417646052166979 0 1676:1 6315:1 8106:1 8829:1 9412:1 
0.2375606458405019 0.02131506792869834 988:1 3517:1 3658:1 4340:1 5283:1 7466:1 7692:1 8679:1 
0 0.009704355502527014 1158:1 1437:1 3923:1 6439:1 6659:1 8151:1 
0.07335107593776603 0.05180476974183901 1095:1 3368:1 8982:1 9604:1 10156:1 
0.4527569656003276 0 687:1 3816:1 4086:1 4442:1 4463:1 5359:1 6185:1 7336:1 8885:1 
0.4404903158600297 0 2073:1 4609:1 4964:1 9175:1 9786:1 
0.299264413159993 0.1375438557703537 685:1 3106:1 4460:1 5369:1 5473:1 6818:1 8688:1 9876:1 
0.3200841242719863 0.00639268588882609 257:1 382:1 491:1 816:1 2156:1 2378:1 3154:1 3389:1 4440:1 4517:1 5080:1 5647:1 5930:1 
0.1359181151895653 0 1371:1 2410:1 7040:1 8483:1 9280:1 9432:1 
0.4482732713976994 0 1351:1 2074:1 2144:1 3890:1 4224:1 4694:1 6406:1 7953:1 8241:1 8463:1 9358:1 
0.2069019790530006 0 251:1 1326:1 1584:1 1989:1 5480:1 6132:1 6406:1 8186:1 8721:1 9847:1 10240:1 
0.3557215972062268 0.02721984222331834 92:1 458:1 2585:1 2996:1 3008:1 8324:1 
1 0.3040601917104019 284:1 
0.3777270587036854 0.07793738664744239 2923:1 4269:1 10280:1 
0.2930700393869467 0.03443770640559633 190:1 906:1 1163:1 1743:1 2662:1 3853:1 6247:1 6435:1 6788:1 
0.2727581076473558 0 852:1 1631:1 1663:1 3576:1 8877:1 
0.1523648651789955 0 2420:1 3295:1 6106:1 6287:1 6901:1 7296:1 8127:1 8507:1 9462:1 
0.3026739669970722 0 445:1 1158:1 1232:1 4439:1 4810:1 6330:1 6432:1 7028:1 8341:1 9355:1 
0.1035471139887933 0.003748079748812297 1661:1 2494:1 5429:1 7040:1 
0.4913571270330401 0.02249109025427116 3723:1 5837:1 8106:1 8489:1 10329:1 
1 0.080492955742172 131:1 6906:1 7671:1 
1 0.1572051463344976 3816:1 4781:1 
0.01542218707563102 0 415:1 2185:1 3719:1 3852:1 4265:1 4436:1 4555:1 4590:1 5805:1 5976:1 6882:1 7523:1 7528:1 8290:1 8778:1 9774:1 
0.428703084343781 0.04893111842435407 1386:1 2481:1 3584:1 5104:1 7729:1 9134:1 9772:1 
0.278552843153513 0 295:1 376:1 4216:1 5429:1 5780:1 6105:1 6539:1 8421:1 8969:1 10259:1 
0.2622796557824009 0.03743068864274367 2423:1 2604:1 4071:1 7217:1 8153:1 
0.1982234146425577 0 365:1 2279:1 2996:1 4643:1 4659:1 5874:1 6010:1 7161:1 
0.1325949769523875 0 1446:1 3273:1 5527:1 5687:1 5701:1 6406:1 6419:1 7929:1 8487:1 8796:1 9747:1 9999:1 10150:1 
0 0.0190764735244127 1695:1 2164:1 2882:1 4629:1 4957:1 4961:1 5268:1 7451:1 9126:1 
0.06199071043068124 0 647:1 1362:1 1585:1 3940:1 4208:1 5391:1 
0.4083895680778237 0.02555039463478338 1822:1 5531:1 6953:1 7861:1 8230:1 8730:1 
0 0.02702096119943104 456:1 731:1 1853:1 3024:1 4928:1 5020:1 7630:1 8747:1 9094:1 9793:1 
0.3732256489645908 0.03726035409442216 78:1 867:1 3900:1 3930:1 5679:1 8065:1 
0.3569829791940541 0.07614894153296423 82:1 1289:1 4673:1 6555:1 
1 0.08782856492034991 47:1 3562:1 9793:1 
0.5337575777569671 0 1663:1 3721:1 5419:1 9380:1 9823:1 
0 0.03928902052960877 2472:1 5397:1 5820:1 6018:1 9755:1 10148:1 
0.03536089297396374 0 415:1 674:1 1528:1 2295:1 3030:1 4522:1 4836:1 5676:1 8952:1 10073:1 
0.3233279547774082 0.008640155706547498 123:1 1917:1 3257:1 5498:1 6106:1 7921:1 8241:1 8654:1 9146:1 
0.3168671526064957 0.06556219623129367 3383:1 7244:1 8753:1 8814:1 
0.8172413200093124 0.1429961229658278 4309:1 8330:1 
0.416427757213867 0.03556499150552516 1035:1 1240:1 1760:1 6580:1 7729:1 8528:1 
0.02933783326593332 0 1417:1 1933:1 2712:1 2815:1 6100:1 7036:1 7357:1 8241:1 10122:1 
0.2600444273906137 0.04709417101822703 584:1 4570:1 7836:1 7852:1 8371:1 9477:1 
0.1529744664336049 0 623:1 3769:1 3916:1 4615:1 4752:1 6009:1 8031:1 9391:1 
0.27253359952574 0.01209294277369515 2073:1 4112:1 5916:1 7689:1 
0.1207906837687782 0 237:1 513:1 1494:1 2020:1 2105:1 3638:1 6406:1 8906:1 9550:1 10032:1 
0.1321138683670389 0 1917:1 4157:1 4768:1 5734:1 8034:1 8364:1 9029:1 
1 0.04238263526750344 305:1 5391:1 6551:1 
0.1813418970489089 0 107:1 431:1 2454:1 2559:1 3308:1 3791:1 5216:1 6406:1 7074:1 9487:1 9578:1 9869:1 
0 0.032556202110041 1310:1 2204:1 3540:1 6205:1 6436:1 7617:1 8858:1 9357:1 10149:1 
0.1753425167017753 0 131:1 1584:1 2806:1 4256:1 5010:1 6077:1 6197:1 6406:1 6793:1 7164:1 8241:1 8397:1 8551:1 9193:1 9358:1 
0.4589380279329277 0 803:1 2019:1 3424:1 8241:1 8579:1 8999:1 9269:1 9358:1 9513:1 9604:1 10041:1 
0.2916854188434431 0 2443:1 2572:1 3469:1 4083:1 5208:1 6364:1 6806:1 7036:1 7205:1 8767:1 
0.01523014254042126 0 29:1 277:1 340:1 411:1 900:1 1410:1 2244:1 2996:1 3497:1 4808:1 4964:1 6033:1 7046:1 7236:1 8117:1 9174:1 
0.0926445947500977 0 85:1 279:1 578:1 625:1 1183:1 3368:1 3588:1 3870:1 3920:1 6762:1 7885:1 8784:1 
0.3677513212475728 0.001060015726864439 35:1 647:1 3013:1 3565:1 4533:1 4729:1 6439:1 6809:1 7628:1 9532:1 
0.03190615552681089 0 623:1 1803:1 2141:1 4019:1 4265:1 5034:1 5111:1 6511:1 7099:1 7953:1 9355:1 9718:1 9748:1 
0.3131838209356119 0.02701172220586011 295:1 1428:1 6446:1 8119:1 9235:1 
0.1565431312807029 0 1663:1 3719:1 4486:1 4857:1 6667:1 8624:1 
0.8952554728538542 0.09292136917974941 4343:1 4806:1 6598:1 
0 0.01018760529976062 536:1 2149:1 5641:1 6799:1 7306:1 7672:1 9217:1 
0.7827863161858826 0.003105407935621182 131:1 1993:1 2914:1 5461:1 9538:1 
0.9309197626146164 0 673:1 746:1 6640:1 
0.1736978015920924 0 568:1 647:1 2073:1 2126:1 2826:1 2945:1 4127:1 4308:1 5430:1 6105:1 6312:1 6406:1 7450:1 8102:1 9221:1 9280:1 
0.192578178367656 0 410:1 1788:1 2440:1 4000:1 5971:1 6406:1 7113:1 7477:1 8131:1 
0.09930472309560932 0 749:1 1663:1 2843:1 3141:1 3914:1 5449:1 6745:1 6832:1 
0.01137894153847117 0 2471:1 2653:1 5701:1 6406:1 7365:1 7414:1 8397:1 8825:1 9280:1 9684:1 9854:1 
0.6141912086777345 0 2317:1 4475:1 4484:1 6479:1 6818:1 9358:1 
0.06591884245647431 0 1323:1 1371:1 2472:1 3148:1 4928:1 5429:1 6406:1 7411:1 9056:1 9342:1 
0.2075793661728161 0.004573748056125285 54:1 3541:1 3705:1 3723:1 4003:1 5347:1 9739:1 9759:1 
0.07668280697423939 0 411:1 2141:1 3198:1 3372:1 5629:1 7161:1 7853:1 8127:1 8444:1 8570:1 10043:1 10282:1 10350:1 
1 0.03712291438739986 1939:1 3163:1 3424:1 4271:1 
0.2968101722789915 0 746:1 1766:1 3386:1 3429:1 5333:1 5967:1 6512:1 7794:1 9355:1 
0.8273424895143637 0 1663:1 2184:1 5341:1 5386:1 5790:1 7730:1 8723:1 
0.1079475161614513 0 1230:1 1712:1 2422:1 3565:1 3741:1 4810:1 5122:1 5138:1 6406:1 8347:1 8528:1 
0.1326595388605513 0 1663:1 1666:1 2019:1 2522:1 3492:1 5330:1 5971:1 6409:1 7443:1 8131:1 9616:1 9996:1 10008:1 10174:1 
0.5343984964359845 0 413:1 1516:1 5629:1 6659:1 8700:1 
0.01630135308827685 0 968:1 1026:1 1731:1 4324:1 6383:1 6965:1 7204:1 7531:1 7654:1 7785:1 9062:1 9063:1 9151:1 
0.1111126440009854 0 288:1 1367:1 1663:1 2019:1 2325:1 3950:1 8131:1 8732:1 10153:1 
0.243711483358088 0 6024:1 6097:1 6140:1 6901:1 7569:1 8252:1 8349:1 8461:1 8719:1 
0.3989071655225052 0.2225899558560644 2019:1 7315:1 8052:1 8139:1 
0.4582953392547111 0 1019:1 1422:1 2317:1 6406:1 7729:1 
0.3500885594375252 0 265:1 1672:1 3923:1 4694:1 6125:1 6205:1 6406:1 6722:1 10081:1 
0.02500425706361712 0 261:1 823:1 1163:1 1416:1 1556:1 2019:1 3748:1 6924:1 6978:1 7080:1 9306:1 9586:1 10073:1 
0.05644001909166219 0 1410:1 1421:1 3054:1 4081:1 6238:1 6849:1 7184:1 8461:1 9062:1 
0.85977771364272 0 753:1 784:1 1032:1 1663:1 2938:1 6660:1 8911:1 
0 0.001219016328596514 1930:1 4997:1 5522:1 5604:1 6137:1 10077:1 
0.3170042264894348 0.01021217968864411 394:1 1489:1 2939:1 4238:1 4269:1 4730:1 4941:1 8852:1 
0.2198293940028989 0 1917:1 3167:1 4163:1 6406:1 7491:1 8532:1 
0.08292809039856927 0.01630356387446823 251:1 415:1 441:1 2712:1 3705:1 4175:1 6727:1 7452:1 8062:1 10009:1 10172:1 
0.515216068874466 0.00489945899561089 411:1 1407:1 3137:1 3196:1 3803:1 4403:1 
0.2503788875771315 0.003434139573182174 334:1 2499:1 3289:1 3670:1 6118:1 6276:1 6901:1 
0.4208338929484468 0 4321:1 6351:1 6537:1 7023:1 7759:1 8413:1 8659:1 8839:1 
0.3098246903662708 0 679:1 6406:1 7395:1 
0.1379662122333979 0 1163:1 2073:1 2239:1 4263:1 4482:1 4593:1 4917:1 5010:1 5233:1 6465:1 6584:1 6640:1 7998:1 
0.2398584821676926 0 55:1 131:1 9566:1 
0.552251733861558 0 1748:1 2073:1 4086:1 4569:1 4607:1 5359:1 5820:1 6185:1 7097:1 7753:1 8937:1 9091:1 9269:1 10282:1 
0.2274116976647897 0 1862:1 2148:1 3153:1 3338:1 4086:1 5951:1 6298:1 8067:1 
0.001982885809988222 0 140:1 288:1 2787:1 3047:1 3771:1 6060:1 8987:1 10102:1 
0.0547091208316506 0 1025:1 1145:1 1163:1 2073:1 2651:1 3205:1 4212:1 4246:1 4956:1 4981:1 5341:1 7351:1 8687:1 
0.2292083634412339 0 172:1 662:1 2993:1 3121:1 3567:1 3940:1 4271:1 5013:1 5369:1 7946:1 8002:1 9177:1 
0.7406190264180695 0.02876492200906453 2750:1 3121:1 3580:1 6659:1 8811:1 
0.09795626772136953 0 746:1 4690:1 4897:1 5457:1 5563:1 5631:1 6024:1 7061:1 7063:1 8484:1 8499:1 9854:1 
0.06148779556560741 0 253:1 275:1 2110:1 2546:1 3392:1 3549:1 5760:1 6406:1 8382:1 
0.1530505028846655 0.03002901631746061 706:1 3891:1 4827:1 6330:1 6904:1 7999:1 8099:1 8686:1 9743:1 
0.1376338110877982 0 19:1 411:1 816:1 1612:1 2107:1 2288:1 2437:1 3001:1 5572:1 6413:1 6584:1 8885:1 9428:1 
0.2907545938895221 0.05077882011887119 109:1 703:1 1650:1 2831:1 3221:1 4775:1 6244:1 
0.09884113480722341 0.009124816041007023 411:1 1035:1 1126:1 1779:1 6859:1 7794:1 8226:1 9291:1 9488:1 10112:1 
0.006361829607000183 0.01100359106065938 217:1 612:1 857:1 1334:1 1584:1 2538:1 3643:1 4179:1 4181:1 5512:1 5838:1 5976:1 7344:1 7454:1 8405:1 8700:1 8987:1 9178:1 9816:1 10094:1 
0.04848464462257762 0 689:1 1078:1 1663:1 2825:1 4291:1 6105:1 7026:1 7471:1 7606:1 8112:1 8911:1 
0.1159430229155868 0 296:1 1584:1 2662:1 6490:1 6771:1 6857:1 6921:1 8885:1 
1 0.1261370508033353 3338:1 
0.1818424831444561 0 171:1 1401:1 1613:1 1630:1 1663:1 1956:1 8730:1 9472:1 
0.7217246224425084 0 1663:1 3940:1 4694:1 5154:1 6024:1 7409:1 9314:1 9766:1 
0 0.02239885839771093 1760:1 6296:1 7017:1 7953:1 
0.1524964473900625 0.03577992235811451 2326:1 2553:1 2626:1 2936:1 3728:1 4424:1 5274:1 5920:1 
0.08365764169678254 0 647:1 2678:1 3442:1 5615:1 6901:1 
0.2309133979310158 0 456:1 3158:1 3330:1 4086:1 4163:1 5098:1 6818:1 7385:1 9231:1 9482:1 
0.2252078461443771 0.02001441946068436 625:1 3738:1 4659:1 4799:1 4896:1 7762:1 10201:1 10303:1 
0.47403483566555 0.05724947019331305 2405:1 3035:1 4862:1 7066:1 8511:1 
0.04635656804087027 0.003333468116936382 742:1 748:1 1388:1 1872:1 1892:1 2798:1 2926:1 3239:1 3425:1 3735:1 4905:1 7182:1 7354:1 7413:1 7598:1 8401:1 8722:1 8948:1 9972:1 10235:1 
0.06219277050693846 0 1973:1 3940:1 4558:1 5080:1 6406:1 6465:1 9904:1 
0.04572359617788159 0 1410:1 2926:1 3620:1 4673:1 5388:1 7097:1 9062:1 9269:1 9861:1 
0.2123313385983507 0 2801:1 2851:1 3336:1 5077:1 5192:1 6315:1 6532:1 8322:1 8991:1 9623:1 
0.2179594565601645 0.0130245004312322 60:1 2420:1 3728:1 3949:1 4845:1 5404:1 7036:1 
0.08266800525556528 0 407:1 1029:1 1357:1 1663:1 2131:1 6063:1 7840:1 9402:1 
0.1395412862582667 0.06919230243024985 2780:1 2868:1 3707:1 7126:1 
0.1177995531605776 0 178:1 664:1 1294:1 2204:1 2292:1 2417:1 4271:1 4326:1 4644:1 6003:1 6223:1 6818:1 10233:1 
0.2387127536662813 0 196:1 238:1 1017:1 1209:1 1663:1 2038:1 3617:1 3659:1 3876:1 6522:1 8165:1 9909:1 
0.07303976336606194 0 1235:1 1663:1 3890:1 4083:1 7017:1 7663:1 8676:1 10259:1 
0.2970908455329192 0.03896994384594791 647:1 693:1 2610:1 4181:1 4659:1 5241:1 9015:1 
0.1309098308268685 0 284:1 2423:1 3950:1 4574:1 5989:1 8580:1 8939:1 10100:1 
1 0 126:1 1294:1 3181:1 4883:1 6388:1 
0.5026379986996694 0 571:1 609:1 2524:1 4429:1 5233:1 6566:1 10097:1 
0.2458135408449525 0 254:1 1022:1 5866:1 6406:1 6410:1 6762:1 7640:1 7713:1 8126:1 9040:1 
0.5788336803578257 0 731:1 2249:1 4430:1 5461:1 5629:1 6895:1 8859:1 
0.3434807374706702 0 1035:1 2149:1 2777:1 3828:1 6515:1 8009:1 9566:1 10282:1 
0.0573980199126673 0 66:1 946:1 3506:1 3529:1 5080:1 5629:1 7141:1 8261:1 8803:1 
0.5100375540572699 0 1663:1 1798:1 6952:1 8461:1 
0.2518133749340669 0.02456081347730066 241:1 3121:1 6858:1 7636:1 9063:1 9855:1 10138:1 
0.1379637430470576 0 1304:1 1825:1 3133:1 6901:1 9207:1 9521:1 9679:1 9863:1 10131:1 10208:1 
0.34828157460227 0.04969723175809514 148:1 1093:1 1554:1 4514:1 4577:1 4578:1 7698:1 8200:1 
0.2213287404296056 0.03444464079482684 859:1 1408:1 6895:1 8519:1 9813:1 
0.7715804833908684 0 6406:1 8983:1 9288:1 
0.2412494661437841 0.02348009685707854 2548:1 4569:1 5088:1 6667:1 6946:1 7327:1 9139:1 
0.4262886491581547 0.03962617066773252 1342:1 2958:1 5978:1 6426:1 6569:1 9211:1 9703:1 
0.5409798830374701 0.06087082572255154 7:1 1037:1 3065:1 6584:1 9641:1 
0.07212164543964088 0 2019:1 2295:1 2383:1 4095:1 4344:1 6214:1 6406:1 6891:1 9062:1 9342:1 
0.1270345672732386 0 140:1 1293:1 6024:1 6406:1 7314:1 8290:1 9394:1 9566:1 
0.1090068266535979 0.02808672373171865 1883:1 4322:1 5468:1 5643:1 6821:1 7376:1 9739:1 
0.4528843256063667 0.07307187292101688 2983:1 3922:1 4070:1 7044:1 
0.1603874408560783 0.002576287045907998 2472:1 2926:1 5359:1 6234:1 6969:1 7629:1 7809:1 8721:1 9238:1 
0.5373396802162076 0 265:1 6406:1 7428:1 8102:1 8131:1 8647:1 
0.4536132976962584 0.03286026453565792 528:1 3153:1 3719:1 6772:1 7685:1 7996:1 8100:1 8863:1 
0.2582300029760777 0 129:1 518:1 4205:1 4765:1 5233:1 5497:1 6406:1 6684:1 8190:1 8241:1 9070:1 9358:1 
0.004133813836153473 0.01324263186307245 1429:1 2188:1 3217:1 3529:1 3945:1 5232:1 5365:1 5758:1 6895:1 7988:1 8606:1 8674:1 9355:1 9584:1 9721:1 
0.4077162822896162 0.03667123026653329 1792:1 2496:1 3202:1 4271:1 7840:1 9215:1 9312:1 
0.4104568434628189 0.05538706504333643 1439:1 2564:1 3778:1 7815:1 9171:1 
0.02807843618325874 0 1119:1 1929:1 2564:1 3102:1 4303:1 6406:1 6551:1 6747:1 6794:1 7218:1 8528:1 9355:1 9634:1 
0.01855596642350954 0 1371:1 1705:1 2019:1 2295:1 2492:1 2588:1 3741:1 3974:1 5701:1 5760:1 6406:1 8438:1 
0.155378701262839 0 465:1 902:1 1072:1 1751:1 2096:1 3121:1 3166:1 3487:1 4566:1 4688:1 8860:1 9272:1 9358:1 9469:1 
0.3088069704987752 0 4928:1 5593:1 6406:1 7514:1 7700:1 9837:1 
0.2706853914118659 0 370:1 2003:1 2073:1 3689:1 3922:1 6388:1 8241:1 9221:1 
